9996 16
. 0.04947482 -0.0065923706 0.058050893 0.05510392 0.059405874 -0.020818243 -0.028460363 0.08558875 -0.04797808 0.002310682 0.034680557 -0.025551606 -0.06815885 0.018991021 0.11923184 0.051556733
영화 0.016758662 -0.05213604 0.1026307 0.052069288 -0.02366141 -0.002883612 -0.014769743 0.023025285 0.030234046 0.04098505 0.024644025 -0.004673166 0.0004318294 0.03136689 0.2548351 0.0011536295
다 -0.06673429 -0.08232523 -0.01080374 0.0966817 -0.017066358 -0.037429854 -0.007183519 0.021131124 -0.033431016 -0.06677137 -0.0014426757 0.0028158568 0.033674896 0.032035165 0.11480703 -0.063335314
고 -0.036547665 0.062417515 0.06327441 0.0032214168 0.055369433 -0.024048971 0.048308462 0.07668847 0.017388 0.0045311092 -0.024421778 -0.0037045025 -0.08090263 -0.030391851 0.12677203 -0.02730484
하 0.04583742 0.07355712 -0.0088113155 -0.060666353 0.019593034 0.028531335 -0.0335791 0.09090824 0.039292846 0.11806458 0.02547495 0.057029303 -0.044658717 -0.02774591 -0.03438706 0.049806446
을 -0.014749782 0.013153367 -0.022492379 -0.06030391 -0.051245898 0.042757306 0.03616659 0.03728715 -0.0037953977 0.020537464 0.04967423 0.04190267 -0.0049892985 -0.006773267 -0.07820002 -0.019676667
보 -0.015824364 0.04603625 0.02355049 -0.04165087 -0.031034907 0.01053241 0.02564061 -0.050265968 -0.0028586735 -0.011517956 -0.054090027 0.010276686 0.007947044 -0.040422425 -0.058173757 -0.055735037
.. 0.06927192 0.03295282 0.024914002 -0.019373698 0.054519497 0.0024071971 0.09024724 0.071620464 -0.03910929 0.061403614 0.07708421 0.06435624 -0.012903144 -0.050792806 0.067392744 0.00815537
게 -0.01077626 0.0022540768 -0.0066787167 0.038275708 0.021853667 -0.064804815 0.028714363 0.023640864 -0.030725263 0.021008702 -0.014769909 -0.05945492 -0.039186176 -0.0056978865 0.10937689 -0.05014379
, 0.047651924 0.019036382 0.056304697 -0.009599716 0.011901028 -0.045009412 -0.026756369 0.040353358 -0.035052087 0.00022325324 0.022027424 0.0016288311 -0.004788785 -0.040971506 0.035732128 0.028014796
! -0.013507766 -0.16701835 0.044109743 0.009780142 0.00046698903 -0.045987505 0.022692526 -0.049856085 0.06986378 -0.16920081 -0.08832328 -0.09644345 0.016533084 -0.019564858 0.07171843 -0.06317695
지 0.031113837 0.18435295 -0.17756434 -0.110067524 -0.06619828 0.06427236 0.09604904 0.01003346 0.011898806 0.15853487 0.09214166 0.05056535 0.03367061 -0.046228826 -0.3437109 0.031124473
있 0.02984539 0.018665774 -0.07392706 -0.09293833 -0.019194735 0.018129753 0.04730993 -0.07727838 0.07430537 -0.0018924087 -0.014849133 -0.051844556 0.04130015 0.021855403 -0.13643405 -0.03601263
없 -0.046924766 0.0026735745 0.03571593 0.09284141 0.06650529 0.02860528 0.1262143 0.06496838 -0.11359055 0.07820501 0.06620729 0.14381531 -0.12234432 -0.08638904 0.045058355 0.1276156
? 0.053351767 0.07772804 -0.008560622 0.0030506824 -0.007187996 0.096964546 0.04935826 0.0033634172 -0.0679839 0.068525694 0.104789205 0.0513157 -0.04236268 -0.031508304 -0.095861666 0.06486536
좋 0.013946196 -0.016174845 -0.029545525 -0.11085142 -0.09518373 -0.09846088 -0.039996058 -0.0060161287 0.09349205 -0.072338626 -0.049409147 -0.1012705 0.04143646 0.08167805 -0.06820525 -0.14019562
나 -0.015623682 0.113523215 -0.015934521 -0.01875158 -0.031598285 -0.0067579686 0.0044062175 0.033792917 0.012121944 0.0529712 0.06444199 0.035873413 -0.007927582 -0.046379715 -0.07136468 0.0040933094
었 -0.007129347 -0.03483005 -0.0066042095 -0.018816102 0.021229474 -0.04501922 -0.0029849738 -0.055426992 0.008324186 -0.060654357 0.0015554297 -0.012238064 0.057436585 0.048047647 0.016770063 0.014824567
만 -0.024172181 0.07632532 0.08956321 -0.011905467 0.06792533 0.03992347 0.029068936 0.082984306 -0.06411627 0.0072542676 0.012424231 0.08029357 -0.0032359415 -0.06916079 0.050412327 0.013165167
는데 0.040080793 0.25512916 -0.2315741 -0.106910214 -0.09852152 0.048488773 0.048024878 -0.06321475 0.03688677 0.088494845 0.020790596 0.06809668 0.013331121 -0.05145037 -0.44146904 0.021827571
너무 0.13861543 0.09794592 -0.004824657 0.04191725 0.014784084 0.08832393 0.0345024 0.00608568 -0.024878502 0.28832015 0.018930951 0.07305807 -0.06903309 0.04001395 0.029032113 0.02750977
봤 0.01415216 -0.022080973 -0.014125127 -0.050774768 -0.03012939 -0.02448028 -0.027343893 -0.05484367 0.05211737 0.038863007 -0.012113354 0.021011898 -0.030105269 0.035595864 -0.05471853 -0.049251195
적 0.037208166 0.08360133 -0.021981884 -0.0416027 0.009062333 -0.05828298 0.027573183 -0.0145176565 -0.00031643134 -0.009597726 0.036212534 0.045237117 0.04484828 -0.028107328 0.050600644 -0.05568451
안 -0.019146925 0.06770373 0.016926637 0.083039105 0.064641595 0.071416155 0.063661575 0.024997389 -0.099318735 0.05297892 0.11295731 0.042097874 -0.044929896 -0.037025906 0.03722255 0.061765287
정말 0.12792815 0.10991911 -0.034474224 -0.05044833 -0.015275465 0.046597626 -0.03561613 0.047248825 0.05016621 0.18174206 0.013389905 0.007622103 -0.016946211 0.04366114 -0.06347359 -0.0063174786
로 0.005884765 -0.0062756296 -0.07174949 -0.0367653 0.025250765 -0.013919601 0.038437873 -0.038742706 -0.03150221 0.10120471 -0.015703583 0.044081792 -0.021700623 -0.060618266 -0.06506368 0.030280218
음 0.012681203 -0.037472665 0.15481575 0.025878787 0.064298876 -0.0520901 0.013630027 0.06753529 -0.004319719 -0.009728877 0.0016239218 -0.038463715 -0.025664976 0.032824438 0.32040262 0.012764522
것 -0.024718694 0.0122009795 -0.030348465 0.046212837 -0.053874046 -0.011292838 0.018875817 -0.024183229 0.018897427 0.013877207 0.03645361 0.020891683 0.036544688 0.04531298 -0.026573878 -0.0074106143
아 -0.019733436 0.066424124 -0.0113232685 -0.013231297 -0.011790327 0.017398428 -0.015262541 -0.011168109 -0.007827125 -0.0089185415 0.0012068024 -0.015615133 0.00019497317 0.044418775 -0.08375277 0.038262386
네요 0.054775525 -0.02981484 0.15044679 0.05028189 0.013552728 -0.06631839 -0.025974723 0.11909362 0.018064886 -0.009189983 -0.036206182 -0.022207214 -0.08827845 0.07940633 0.3914349 -0.014717829
재밌 0.10173417 0.07863024 -0.11866611 -0.10825728 -0.22050293 -0.13262942 -0.12604925 0.049542785 0.18329863 -0.2038873 -0.19066116 -0.19852969 0.1578931 0.11005462 -0.17670046 -0.1586609
어 0.002037015 0.07734123 0.038924683 0.0053982083 -0.0010545618 -0.048086017 -0.038996678 0.02036875 0.014957419 0.06119921 0.021546986 0.05981947 -0.0125658875 -0.001034759 0.009798187 -0.005597378
같 -0.03722458 -0.04243513 -0.045734104 0.017534956 0.031449813 -0.061177216 0.0052705193 -0.0075487182 -0.037266314 0.0015348995 -0.06889085 -0.025731953 -0.027052682 -0.028015122 0.028816165 -0.015178743
점 -0.0253211 -0.023622261 0.053222273 0.041538358 0.021117426 -0.053597637 -0.035697542 0.030266631 -0.041778438 -0.16862254 0.009155558 0.032147758 -0.061553437 -0.062557615 0.19779077 -0.0141456975
지만 0.10552882 0.23473883 -0.48740658 -0.2335279 -0.16522112 0.10594583 0.13037604 -0.24150331 0.120368615 0.35617945 0.06593422 0.023971695 0.06623951 -0.029373186 -0.74910134 0.020058632
진짜 0.085132524 0.09598369 -0.036021266 -0.07156904 0.023226641 0.015225832 -0.004230306 0.09715115 -0.04870384 0.059366267 -0.008507775 0.024217224 0.0017108223 0.038841147 -0.008990906 0.0361909
했 -0.06192504 -0.011833702 -0.018982375 -0.016444735 -0.045504674 -0.0024432736 0.013256139 0.033357315 -0.03173675 -0.009640305 0.010128864 0.011747014 -0.026652599 -0.018860107 -0.009927037 -0.05006353
에서 0.048797157 0.026962154 -0.0051618884 -0.04276069 -0.013869712 0.024903806 0.018996011 -0.059594445 -0.0021926053 -0.006960179 0.005696735 -0.03312471 0.031691592 0.04268813 -0.049381092 0.025350193
기 0.011396894 -0.019423036 0.03405493 0.01253327 -0.017492337 0.009484167 0.019142391 0.04544544 -0.055208705 0.020914378 0.054389656 0.069782525 -0.017971026 -0.0032078444 0.050561175 0.019585907
네 0.038270693 0.014993692 0.03907627 0.015874047 0.013801479 -0.025334537 0.052848075 0.10983397 -0.03961415 -0.01526288 0.048701987 0.0036939525 -0.091298126 -0.02885203 0.096819505 0.079310454
않 -0.012066666 0.17448527 -0.2672928 -0.07138574 -0.049928024 0.082988694 0.11679998 -0.15532207 0.039599705 0.2620973 0.052538455 0.021433325 0.065502256 -0.028977362 -0.46380934 0.07378804
거 -0.030341431 0.04748414 0.0025435933 -0.031755924 0.007898821 -0.0007406442 0.04818044 0.056998692 -0.003698113 0.031243958 0.045777407 0.0124794245 -0.04396845 -0.048155867 -0.084657975 0.023451008
았 -0.02525815 -0.05297962 -0.04744573 -0.02221716 -0.061533395 -0.017398871 0.08344808 -0.068165004 0.08153711 0.014937193 0.024328668 -0.008110396 -0.036362194 -0.070142776 -0.17569454 -0.056743238
수 0.03005633 0.02104919 0.09664026 -0.0726722 -0.02309479 -0.044448033 0.0022361593 0.039499838 0.09234762 -0.13203946 -0.02667776 -0.07035097 0.033119272 0.008790979 0.03468913 0.0051997
되 -0.0056184954 0.0010744367 0.062320672 0.03527014 -0.0010950611 -0.02291608 -0.015123298 0.047074188 0.0074622133 0.032422952 -0.027465355 0.0028990845 -0.035550863 0.02203977 0.06782866 -0.06816933
면 -0.00029881427 0.100015394 0.0024667394 -0.032454234 -0.04177335 0.014176556 0.016449772 -0.015508828 -0.029418344 0.05280985 0.0478694 0.013290217 -0.01494528 0.038788747 -0.068554826 -0.024456233
ㅋㅋ -0.02098626 -0.0034197737 0.05666181 0.041562676 -0.011533953 -0.023278892 -0.018526431 0.0684214 0.041950893 -0.013773803 -0.0025431977 -0.0056166355 0.012557321 0.03299963 0.019559503 -0.018056529
말 0.0486095 0.087628566 -0.050791528 0.0033318726 0.039791923 0.025462784 0.05420993 0.010637264 0.018696044 0.034465738 0.028850991 -0.02120529 0.04796827 0.014484498 -0.039129358 0.048060082
연기 0.013936965 -0.0038943535 0.017512338 0.0034506107 -0.003966818 -0.044803746 -0.049655568 0.05535845 0.01810486 -0.007983711 -0.013375889 -0.029322654 0.026313419 0.052812565 0.14477332 -0.034558516
인 0.005475632 0.009069607 0.04452424 -0.06418118 0.023686618 -0.03526357 -0.00593358 -0.030860553 0.04080445 -0.06594976 0.036567587 0.025217375 -0.0321078 -0.0005061125 0.0055366172 0.0026294007
주 0.032938644 -0.02838526 0.047502115 0.02331951 -0.05053059 0.0349195 0.032958966 0.039844096 -0.031771068 -0.08617025 0.0046348283 0.0046973294 0.0020069657 0.00029476636 0.013362424 0.008450312
내 -0.040798992 0.07899684 0.0010768453 -0.007871291 -0.003504242 -0.04490079 0.029280353 -0.021376634 0.008517355 -0.036223926 -0.0034735147 0.032866314 -0.044061415 0.037326697 -0.028449018 0.026001362
최고 0.17649598 0.13071968 -0.31475723 -0.22394821 -0.2355957 -0.16067103 -0.14157026 0.04363683 0.21839152 -0.05640705 -0.19285698 -0.18011527 0.17236744 0.18541177 -0.22161038 -0.2563368
~ -0.03527867 -0.110934064 0.06600224 0.0002190715 0.0016005675 -0.08241545 0.012958252 0.030813731 0.046886526 -0.06421671 0.006600606 -0.057258938 -0.018508986 -0.042806774 0.20072284 -0.06968252
평점 -0.024610773 0.016407687 -0.050903283 -0.017070925 0.0300233 0.056129757 0.009524703 -0.050135314 0.03223328 -0.03034633 -0.0052107666 -0.0219151 -0.0028386044 -0.04212242 -0.04448533 -0.009791053
이런 -0.030598933 0.0062938198 0.029179558 0.03971962 -0.039428115 -0.05116849 0.03471091 -0.009891965 0.04274234 0.039372187 0.03261309 0.047389485 -0.009247006 -0.027399046 0.07847752 -0.0149124535
던 0.034701224 0.03297323 -0.01955378 -0.040528715 -0.023904534 -0.0434948 -0.025927536 -0.030046532 0.052799538 -0.03836951 0.003487143 0.009209017 -0.016758148 -0.037112735 -0.09638111 0.033243567
어요 -0.010885074 -0.11172072 0.21985261 0.041028295 0.04564748 -0.041774742 -0.05209468 0.067542195 0.030291839 0.001869 -0.09199976 -0.064573 -0.028875604 0.050507043 0.41662046 -0.10025553
할 0.027250364 -0.003677027 -0.09196862 0.0020884129 -0.002651165 -0.011222522 0.016615644 -0.006541425 0.030269112 0.09442129 0.049809102 -0.0424516 0.07241239 0.018619863 -0.10770473 0.026122974
왜 0.007497285 0.028646953 0.053823277 0.015360101 0.0023362308 -0.0030894794 -0.018165255 0.04242205 -0.039538432 0.005585934 -0.04742907 0.028744081 -0.017560385 0.0050323065 0.07108098 0.023684662
겠 -0.02857773 -0.030206107 -0.05589436 0.0018306297 0.037593868 0.088894725 0.015448979 -0.008099826 -0.024956338 0.11309679 0.08585855 0.045252427 -0.058367338 -0.046168417 -0.007313432 0.09649758
1 -0.089683965 -0.015453217 -0.0039769914 0.08763135 0.10077604 0.09219162 0.08854089 -0.031081317 -0.040657338 0.10689277 0.092236556 0.05064642 -0.012864534 -0.057484675 -0.06145904 0.050458916
스토리 0.00042690212 0.03438866 0.04570548 -0.00034072006 0.054684047 0.04492092 0.044477403 0.07310148 -0.06817988 0.1510312 0.061172068 0.029692518 -0.05012587 -0.077864416 0.07601494 0.033799257
해 0.06513044 -0.020715931 0.009975555 -0.011469018 -0.023880122 0.0019918154 -0.025471019 -0.0001278631 -0.014106963 0.015331382 0.061878476 0.014211086 0.0027622385 -0.028429626 0.09410328 -0.012692656
습니다 0.0120967785 -0.17541873 0.06646836 0.004375766 -0.067432 -0.03522726 -0.05120986 -0.04698085 0.053106815 -0.042934228 -0.04660427 -0.0782607 0.04690063 -0.00050596974 0.19352226 -0.037279226
ㅋㅋㅋ 0.034386206 0.0133671155 -0.0021263063 0.024189448 -0.039472368 0.040068496 0.07847328 -0.001239723 -0.024904177 -0.043780506 0.029831156 0.04651102 -0.042588856 0.007641844 0.008578061 -0.022032617
... 0.04304448 0.04403393 0.0033360699 0.018458737 -0.013379724 0.022581398 0.007592513 -0.018173663 -0.05793488 0.039690226 -0.007817235 0.046486635 -0.04833218 -0.0031351119 0.078018114 0.036891907
드라마 0.065953165 -0.027607623 0.09700874 0.0652157 -0.023293566 -0.06672969 0.0057680146 0.10206849 -0.005463686 -0.020886637 0.019044725 -0.021143224 -0.026190447 0.06354127 0.2618077 -0.033694796
생각 0.014715392 -0.0007736051 0.010251396 0.0038485557 -0.032066345 -0.014768881 -0.0010346012 0.08737561 0.03340254 0.045855373 -0.042838417 0.0017627182 0.0057044025 0.08501285 -0.053890962 -0.03580223
아니 -0.056049403 0.0031815118 -0.1433306 -0.041184265 0.027663846 0.095747925 0.07537442 -0.09549815 -0.032259356 0.16554976 0.07519057 0.05217134 -0.033412885 -0.04237209 -0.20012632 0.01710645
더 -0.0037312226 -0.09055336 0.033967763 0.0650555 0.002492614 -0.024690477 0.012256656 0.01386193 0.022760406 -0.002236547 0.0047670756 0.035462424 -0.057144526 -0.01951085 0.076945 0.026495026
그 0.0054832133 -0.002014493 0.02889442 -0.03187899 0.018822901 -0.03465918 0.04301043 0.025233788 -0.03796836 0.02633259 -0.029846478 -0.045356326 0.036449526 0.038418833 0.013847691 -0.029687772
싶 0.011113407 -0.109766915 0.080291815 0.030305732 0.038874567 -0.045366917 -0.035615515 0.026094673 0.01076187 -0.099018246 -0.049504243 0.032830127 -0.03066713 0.028375069 0.19665259 -0.037113573
사람 0.012010546 0.0053715473 -0.005965363 -0.06987417 0.0024717338 0.03347716 -0.03322565 -0.0537803 0.011224835 0.015918963 -0.06074819 0.0024545793 0.041505605 0.021987494 -0.08768071 -0.020750357
듯 0.018259954 0.037808903 0.0489345 0.0594702 0.016330902 0.020047655 0.04704675 0.032824714 -0.04890413 0.08093171 0.04368514 0.038136948 0.007844667 -0.0106661245 0.022872241 0.011846488
때 0.07628234 -0.03537996 0.030564494 0.034240745 0.007456083 0.015540767 -0.009987438 -0.003250406 -0.028512398 -0.0299458 -0.019592164 -0.03092612 0.047596175 0.029766878 0.04117992 0.026586914
감동 0.122294754 0.10034763 -0.0601137 -0.10785024 -0.15262878 -0.0216936 -0.06728033 -0.016784914 0.077726424 -0.092977 -0.049999744 -0.10521596 0.09854747 0.05106503 -0.110415556 -0.09408451
함 -0.011541886 0.063884795 -9.972988e-05 -0.024185795 -0.02863146 -0.05830249 0.0051936777 -0.012223405 0.04022139 0.01598795 0.009715585 0.02445249 -0.0008852863 -0.027762173 0.043596275 0.027710993
배우 0.014125952 -0.028388938 0.017450204 0.013617097 -0.03542786 -0.031228611 0.04306483 0.0067981416 0.014050953 0.059063256 0.06704114 -0.01032048 -0.049871545 -0.056548193 -0.037452314 0.041603025
본 -0.04837434 -0.012718748 0.017472036 0.016729826 -0.016443359 -0.06143861 -0.018985834 -0.014227094 0.06503225 0.012467346 0.023484042 0.012976324 0.040467612 0.028607834 0.045452572 -0.060581338
까지 -0.03444267 -0.0008840813 -0.041783635 -0.0009978773 -0.011141377 -0.01406002 0.04886844 -0.008738598 0.02790394 0.03536483 0.035346713 0.015187218 -0.041706454 0.008358848 0.019842729 -0.03951703
뭐 -0.087894686 -0.012341749 0.07756241 0.007076431 0.019765122 0.021866007 0.02405717 -0.0038575868 -0.025549136 0.012433707 0.022914063 0.11362832 -0.090634376 -0.08771235 0.00823954 0.06082024
알 0.023988217 0.033282395 0.002887541 -0.0038458803 -0.028659396 -0.0007507914 0.026334675 -0.016141871 -0.011656866 -0.011969712 0.029703269 0.04944315 0.04493722 0.03018669 -0.12998658 0.044316337
만들 -0.059531167 -0.018470401 0.048473235 0.061443165 0.0794275 0.03504824 0.017628897 0.03898299 -0.016896756 -0.03741545 0.0361874 0.022856602 -0.0064124917 0.0068275426 0.054126155 0.020660171
내용 -0.00770872 0.020298496 -0.0066664466 0.0047969017 0.056086525 0.040594205 0.060612343 -0.01317285 -0.04578673 0.122287214 0.058812667 0.0044754855 -0.06456169 -0.0772455 -0.009456374 0.06557877
볼 0.03741436 0.00730013 0.03583705 -0.02790179 -0.029474197 -0.024398256 -0.06420139 0.025911387 0.03322696 -0.10892858 -0.044041943 -0.011301896 0.055937137 0.047037773 -0.062132865 -0.0790098
감독 -0.07195274 -0.07925392 0.06931951 0.09569664 0.06958645 0.061096035 0.06590446 0.053293813 -0.01542467 0.0014203524 0.060155272 0.059777223 -0.09258021 -0.032379754 0.1371522 0.058009304
보다 0.006937465 0.060543966 -0.16358979 -0.023848955 -0.047163248 0.029510139 -0.018004552 0.017810922 0.0340568 0.100022346 0.06763171 0.040746737 -0.0013478306 0.02334531 -0.19651489 -0.027639084
라 0.02630443 0.038700853 -0.09920088 -0.06330025 0.012195615 0.046374366 0.07093935 0.02968133 -0.006497874 0.12746777 0.03591245 -0.013906472 -0.039881352 -0.027061092 -0.1262829 -0.014543936
그냥 -0.055740997 0.04046761 0.035359614 -0.015530877 0.00015789928 0.062473226 0.07219944 0.033786543 -0.038242906 0.04773881 0.024737097 0.036678154 -0.09857042 -0.038220406 0.0051782154 0.08417168
재미 0.041771714 0.10172809 -0.05934961 0.022606283 -0.045697983 0.018236866 0.0074513694 -0.026348634 -0.021314124 0.1752238 0.0144125465 -0.012824392 -0.07597051 -0.054358184 -0.08201781 0.018806616
시간 -0.03999211 0.085348114 -0.007948357 0.05418258 0.061708193 0.008907851 -0.0022985449 0.05367977 -0.03746291 0.105848424 0.049111545 -0.005478365 -0.00207929 -0.049245663 0.070725 0.0418766
지루 -0.14712438 -0.089900374 -0.00028462725 0.10328181 0.11522572 0.118817255 0.15597256 -0.08481387 -0.13304083 0.37566072 0.17955083 0.13707359 -0.041964855 -0.12605304 0.026328221 0.17520557
중 0.03976899 0.00443638 0.0141978115 -0.033308566 -0.02921369 -0.0025173647 -0.03618682 -0.004979201 -0.013835768 0.010735577 -0.006199163 0.028737724 0.021791091 0.056249283 0.05096669 -0.029620834
재미있 0.106439784 0.1387108 -0.103289634 -0.1504057 -0.18107341 -0.100392945 -0.06857663 0.03378104 0.14097169 -0.2110886 -0.08681578 -0.1821037 0.13054281 0.10427773 -0.14851294 -0.12457415
년 -0.018906472 -0.0049828384 -0.03488549 0.042709246 -0.024374723 -0.01200364 0.014317401 0.059012525 0.019950088 -0.007671943 0.02993644 -0.022676025 0.0314589 0.013274192 -0.04621907 -0.024701862
10 0.046931084 0.04098595 -0.22009468 -0.20110987 -0.189844 -0.15581304 -0.120636225 -0.010834085 0.21373294 -0.31387293 -0.08061206 -0.089440405 0.10998942 0.11734245 -0.34134194 -0.10481832
였 -0.0056017595 -0.07517451 0.024024673 0.04824954 -0.058056552 -0.052447833 -0.034304526 -0.034866482 0.01168945 -0.010383777 -0.051890142 -0.075098865 -0.0013915785 0.03965969 0.026309216 -0.04402743
잼 0.13362965 0.014036726 0.010356818 -0.0330802 -0.045475155 -0.08539276 -0.075445645 0.13068952 -0.00053063186 -0.032108843 -0.03392397 -0.03507382 0.06501976 0.033138424 0.08283198 -0.06659412
사랑 0.07700827 0.021888308 -0.09083304 -0.09479535 -0.086297944 -0.10685723 -0.051668637 -0.025245119 0.09182855 -0.16207267 -0.120114885 -0.09057929 0.13642937 0.103033915 -0.16648084 -0.07508231
못 -0.052674655 -0.06584833 -0.050010566 0.018213246 0.041343186 0.050864022 0.071797796 -0.03532545 -0.0959259 0.13492997 0.122727044 0.06429399 -0.07878838 -0.039365802 -0.09792663 0.07169376
냐 0.0015793791 -0.014894389 -0.006628092 0.011929893 0.043443237 0.091987014 0.09560919 -0.0101778675 -0.04731688 0.116543785 0.0969318 0.09098393 0.014411507 -0.116968274 -0.08749018 0.03610092
재미없 -0.24062324 -0.16647139 0.2018131 0.23689356 0.19368212 0.15691377 0.18567924 -0.12385866 -0.2289231 0.21676525 0.2404768 0.16197726 -0.13495983 -0.19533093 0.14750819 0.16743742
쓰레기 -0.1469147 -0.088294975 0.16751716 0.14986911 0.15218307 0.19145471 0.24811484 -0.14882645 -0.16982774 0.2836221 0.20137392 0.19292922 -0.12409656 -0.206091 0.12776318 0.21398465
서 -0.0552454 0.057389274 -0.034670904 -0.044399876 -0.010710069 -0.033139806 -0.015569142 -0.048447113 -0.009195183 -0.01199576 0.008314211 0.041355394 -0.006940263 -0.013816398 -0.03182454 0.006492589
2 -0.026436852 0.012082551 -0.0025954552 0.0010992584 0.034990102 0.06584211 0.042316385 0.0040115123 -0.033344604 0.11703726 0.03881877 0.0458684 0.043858092 0.03911147 -0.008475973 0.029286815
라고 -0.041484233 -0.0357494 -0.06538666 0.025770389 0.03811036 0.037869535 0.013307001 -0.06728126 -0.0015622227 0.13122402 0.04211701 0.06033963 -0.028948123 -0.016540594 -0.07857063 0.0070655993
야 -0.040720195 0.03250042 0.029989934 -0.010944508 0.036226362 0.0036112012 0.021095904 -0.0034518533 -0.04681275 0.04266558 0.0048319167 -0.009628944 -0.016054496 0.0020569018 -0.018189406 -0.007750877
니 -0.055798877 0.037208606 -0.04046131 0.057683088 0.02338832 0.069609106 -0.02676419 0.03379843 0.032149334 0.04631232 -0.026379399 0.020287335 0.025803214 0.042036116 -0.056985795 -0.0046911053
면서 0.038635742 0.0729463 0.060359627 -0.015461559 -0.019677773 -0.00901649 0.012417875 0.075753585 -0.06107514 0.061499752 -0.01197554 -0.022098407 -0.038781937 0.045967586 0.0056015123 0.02953494
번 0.0021984521 0.016858328 -0.006200293 -0.0584755 0.021896658 -0.008363981 -0.020983342 0.02852746 0.03595834 -0.038553484 -0.061695386 -0.067126274 -0.014721281 0.028003814 0.041062444 -0.025854565
다시 0.07805 0.021944473 -0.05123871 -0.12757479 -0.113190904 -0.044966932 -0.028140202 0.034635752 0.10847082 -0.043647837 -0.018129606 -0.04512108 0.11718036 0.03591643 -0.18494141 -0.07411163
나오 0.0041549746 0.03377919 0.058920443 0.058907393 0.039463203 0.006085578 0.056649897 0.02894106 0.015701057 0.03138784 0.019527236 0.02885499 -0.061707903 -0.0040740105 0.027812248 0.050988063
작품 -0.030936053 -0.046898287 -0.0004929052 -0.048164934 0.0075689987 -0.0504931 0.019491192 -0.03437169 0.07008879 -0.07929231 0.014919489 -0.0677154 0.046636514 0.049386743 -0.021167794 -0.012929198
이거 0.0050866837 -0.025812853 -0.026887123 -0.032715898 -0.025710126 0.0021816792 -0.013087991 -0.02818383 0.020710178 0.021137994 0.017729841 0.010195089 -0.03341254 -0.04176969 0.0055117006 0.052230533
하나 -0.007321136 -0.0134117175 -0.029249556 -0.028824352 0.038869098 0.070512116 0.073380455 -0.048528362 -0.06935723 0.044763785 0.0036349043 0.039319713 -0.0012012259 0.016672745 -0.0045900913 0.010332395
줄 0.044130556 0.08465632 -0.027003307 -0.05408926 -0.04216034 0.013032549 0.043503173 0.003645993 -0.027780281 0.030116983 0.034143463 0.041243553 0.0049439664 -0.055250823 -0.08933425 0.034311317
해서 0.015463495 0.015927982 0.013425275 -0.041972615 -0.040824793 -0.011879854 0.06609744 -0.089201584 -0.026090458 -0.00979054 0.033011287 0.033279974 -0.04056944 -0.06566819 -0.07645787 -0.03374692
개 0.021193162 -0.008925241 0.0041050087 0.03155763 0.052184053 0.0026837997 -0.017529486 0.035286326 -0.061946407 0.039731152 0.0619835 0.047902856 -0.013460014 0.005468347 0.016022902 0.05735763
남 -0.01681054 -0.0013283972 0.11835031 0.057211522 0.007796275 0.04805797 0.05038836 0.003089148 -0.0045353686 -0.0003754401 0.014451171 -0.005554985 -0.047167193 0.021219237 0.15035415 0.0040279315
정도 -0.020598993 0.09952658 -0.011960753 -0.0020774761 0.052226353 0.004836588 0.046990097 0.07478852 -0.061112076 0.058362454 0.03410821 0.0044036815 -0.0042469036 0.014539466 0.08414631 0.015744857
마지막 0.05530768 0.035550456 0.012218027 -0.06655634 -0.06881749 -0.026570028 -0.0033604729 0.032083098 0.0541605 -0.09995328 -0.025751138 -0.031461112 0.023945898 0.07356696 0.10423896 -0.045327444
끝 -0.05779296 -0.019699832 0.05755113 0.037808068 0.08503766 -0.007361075 -0.0004842633 0.059054647 -0.06813136 -0.0074873245 0.060651056 0.0074107456 -0.050279777 0.008534752 0.05394034 0.06624432
이건 -0.024468442 0.02291621 -0.045446787 0.020126088 0.022057615 0.14061356 0.117378525 -0.075518325 -0.12291179 0.22226731 0.07550718 0.104240246 -0.020704715 -0.07641451 -0.052565675 0.08730394
액션 -0.0066497438 -0.035408687 -0.030184107 -0.04823891 -0.014109132 0.022824762 -0.05794274 0.01486601 0.0028055597 -0.043784693 -0.031155247 -0.023967303 -0.019243887 0.026855918 -0.0206377 -0.029884024
임 0.05706796 0.022292906 0.11639577 0.041869644 0.0055259047 -0.08303526 -0.026721373 0.10555018 -0.017543403 0.011660183 0.022386437 0.012693148 -0.051938653 0.045494713 0.15209138 -0.013865607
ㅋ 0.03273665 -0.024468964 -0.0317542 -0.03742352 -0.025644695 -0.019666534 -0.0067803417 -0.026528291 -0.013292582 0.0017893611 -0.00024344916 -0.00014779004 0.013712775 0.07802624 -0.0059771063 0.024611756
3 0.012279157 0.06174453 -0.040222857 0.004354195 0.03871013 0.02625768 0.03642106 -0.008896828 -0.016115934 0.0317925 0.028325165 0.015110962 -0.04529263 -0.003955922 0.019439839 0.053615678
기대 -0.08219489 -0.03051352 -0.06296933 -0.018436277 -0.081695475 -0.029452125 0.09407016 -0.11347935 0.041331336 -0.044323724 -0.04906007 -0.006691887 0.010568654 -0.018264856 -0.10791691 -0.06668391
입니다 0.027997341 -0.028801646 0.1280572 0.08010408 0.03879082 -0.006452722 -0.022525847 0.04775264 -0.019385407 0.015171442 -0.06257118 -0.08870837 0.015994871 0.061019592 0.28169018 -0.05827037
건 -0.056007475 -0.025417216 -0.021748183 -0.011311153 -0.020409198 0.05819329 0.015943304 -0.061142858 -0.0135451285 0.016573224 0.04707259 0.043406487 0.0036468555 -0.108164385 -0.12714866 -0.00683226
라는 0.011244047 0.018420137 0.0141251385 0.04806904 0.02199632 0.02808985 -0.0032654041 -0.019502597 -0.020163668 0.028503818 0.04423727 0.04073341 0.017814929 0.021795364 0.043047562 -0.020425921
분 -0.113330655 -0.09155491 -0.09223741 -0.015733184 0.023246763 0.07543784 0.064105675 -0.11282487 0.02724253 0.09896272 0.039493058 0.06593608 -0.004352697 -0.092594646 -0.11003098 0.025157658
완전 0.035079002 0.06617207 -0.04370449 -0.01973077 -0.04899238 0.04743025 0.023434367 -0.022974439 -0.022828752 0.15746275 0.012545821 -0.0069136727 0.0039276085 0.019004429 -0.04612999 -0.05105027
다는 -0.07417415 0.010905603 -0.0469413 -0.039262474 -0.014884957 -0.008524918 0.030560302 -0.07971295 0.037086144 0.087135404 0.054552034 0.027852878 0.046854857 -0.019453276 -0.19279942 -0.0019782349
참 -0.020597257 0.038922407 0.04935722 0.006607493 -0.0047067828 0.047895074 0.0637058 -0.017522957 -0.056924284 0.047526423 -0.0132431 0.052175052 0.0062042642 -0.0051969383 0.09270738 -0.013345291
많 0.08306432 0.08428215 -0.08367768 -0.015414917 -0.021668945 -0.026432838 0.027212529 -0.020060642 0.022310706 0.10938468 -0.02015787 -0.064435326 0.013030063 0.050229438 -0.060030818 0.0024107683
처음 -0.015241269 -0.042822305 0.03723455 0.047728237 0.06761259 0.039018948 0.06050994 0.06762868 -0.067951225 -0.053971063 0.043058682 -0.014735647 -0.037383012 -0.050890688 0.08254134 0.011998992
장면 -0.012240727 0.04837386 -0.014165418 -0.041834712 -0.04185574 0.0012780606 -0.024939962 0.0077349683 0.019505521 -0.02253816 0.040659346 0.027913056 -0.018237056 0.05350439 -0.03813518 0.038877267
대 0.03519919 0.046732724 -0.03955676 -0.040483274 0.0023682201 -0.034708146 0.055839155 -0.09107495 -0.023757279 -0.031185966 0.063253604 -0.00871736 0.0219393 -0.0077436455 -0.19564787 0.021133801
아깝 -0.08586469 -0.02591728 0.12681414 0.12491067 0.1620516 0.14268607 0.104958534 0.011845463 -0.17305873 0.19144072 0.100967735 0.08419627 -0.14107074 -0.072720364 0.23587877 0.105007716
다가 -0.01033382 0.043591317 -0.029528826 0.034174692 0.040813517 0.09573531 0.053025547 -0.036533862 -0.09569448 0.112852216 0.0559163 0.04516206 -0.093617804 -0.042577002 -0.042014036 0.04252967
으면 -0.07966367 -0.08199726 -0.018771539 0.015077916 0.013427891 -0.045290682 0.01315595 -0.019496033 -0.01883473 -0.049321666 -0.024724128 -0.012900742 0.024722377 -0.013853802 -0.029119479 -0.02362897
지금 0.015360293 0.016039962 -0.08352749 -0.072778076 -0.11024191 -0.02505236 -0.027111718 -0.014513369 0.047943402 0.022815727 -0.08315368 -0.043593537 0.01292189 0.03584866 -0.19890396 -0.022680711
모르 0.020199556 0.09048893 -0.044333786 -0.012159374 -0.057091057 -0.030358557 0.024710339 0.0648166 0.05931048 0.07809217 0.009124315 -0.0036236076 -0.007876468 -0.021003107 -0.15559651 -0.015418006
이렇게 -0.020537538 0.064537965 -0.070713624 0.012241821 0.03673969 0.028951628 0.009704756 -0.019387837 -0.0051724655 0.14341806 0.013019894 0.0030531215 0.00025618382 -0.026555745 -0.017178016 -0.028199635
' -0.041604638 0.054777898 -0.018007437 0.005851703 -0.004410426 -0.025538778 0.007943163 0.017950026 0.003242752 -0.041045323 -0.018639885 -0.0085710315 0.006627779 0.023903295 -0.09308724 0.035223078
편 0.055232164 0.028990824 0.0012782353 -0.025981039 -0.048645154 -0.01401774 -0.03333317 -0.057010483 0.06723939 -0.12166221 0.019460954 0.009262111 0.03796006 0.05970356 -0.06848054 -0.005354495
일 0.016739398 -0.038303897 0.0075943447 0.034628965 0.022318427 -0.010818657 -0.024889328 -0.02137963 0.0105902115 0.009858238 -0.0059482935 0.02235059 0.025757914 -0.040504023 -0.05083477 0.04133608
돈 -0.117547944 -0.057336558 0.10537295 0.068324484 0.11054476 0.054512683 0.07198242 -0.05471439 -0.16774246 0.068895034 0.084842674 0.08318157 -0.1275193 -0.10803234 0.16354182 0.0804263
이게 -0.046565913 -0.053017575 0.03109643 0.038443595 0.053291846 0.028014747 0.069142096 -0.04166216 0.018526414 -0.035676643 0.05635381 0.06298395 0.0032786976 -0.042834405 -0.023844223 0.017455986
성 -0.011167552 0.028754022 0.025518756 0.0635403 0.034882657 0.01241282 0.007663524 -0.04835067 -0.013327547 -0.011243507 0.022489518 0.034038913 -0.016484156 0.030742593 0.024554184 -0.025024144
느낌 0.07851956 0.030056106 0.042432863 0.022246165 0.064689115 -0.038119126 0.013509583 -0.000795859 -0.027546627 0.08159026 0.047979895 0.030184127 -0.050338984 -0.041904233 0.10990856 -0.020010991
시 0.022889672 0.0068055363 0.00015310702 -0.03619902 -0.0027331866 0.03986555 -0.045404397 0.027873417 0.027525749 0.01511886 -0.0017804914 0.016933346 -0.034433067 -0.039883375 -0.068214156 -0.022902517
이야기 0.04244219 -0.0022004487 0.044811644 -0.045850806 0.0012767349 -0.048376456 -0.038128152 0.031476866 0.037623685 0.0009107692 0.0022529024 0.045224022 0.042460904 0.055391576 0.041238785 0.03948072
최악 -0.22807841 -0.25107753 0.38950256 0.3881939 0.31653 0.35450116 0.35027468 -0.23294903 -0.3576265 0.25319272 0.29341385 0.36150566 -0.31503382 -0.3563338 0.4670104 0.38036576
된 0.019165529 0.049900457 0.058488265 -0.019257713 -0.06323774 -0.023903204 -0.0070000864 0.011309252 0.03621981 -0.016376661 0.0071344855 0.027972765 0.030098934 0.04253737 0.03364051 -0.008012868
봐도 0.047780626 -0.009744898 0.02300452 0.021295086 0.01839663 -0.06664673 -0.10922609 0.058069147 0.023517726 0.09592806 -0.07801038 -0.10283441 -0.03255391 0.070011735 0.1973907 -0.033762533
님 0.02985741 -0.0029305434 -0.04391491 0.00022938568 -0.06062528 -0.008403286 0.0033022112 0.045027632 0.09252276 -0.08624198 -0.012899969 -0.0326775 0.025616173 0.0013972562 0.018640183 -0.07563202
어서 0.062237967 0.041731164 0.016852224 0.0042272024 0.0022030273 -0.0070712543 0.02357817 0.026438076 -0.06129396 0.06816947 -0.03685918 -0.023498587 -0.013342994 0.029694071 0.099316925 0.025923224
애 -0.021250317 -0.035073675 0.045089442 0.021574404 0.043453485 -0.001244154 0.076350726 -0.024126783 0.002371992 -0.07944406 0.068465315 0.055452216 -0.013551654 -0.052331403 0.05565326 0.04485244
전 -0.0191844 0.018677516 -0.055592116 -0.002940339 -0.037986863 -0.030682614 -0.025782844 -0.03777861 0.030229714 0.027427627 -0.008526933 0.055851664 -0.017989479 -0.032520384 -0.088735156 -0.003515884
넘 0.08661811 0.07284709 -0.00059398834 -0.0055734534 -0.027230682 -0.035799623 0.004294102 0.0072188345 0.000120467295 0.065564714 -0.03194496 0.04067052 -0.03542796 -0.005834268 0.0040008775 -0.02566532
ㅠㅠ 0.0901385 0.006323212 -0.009281879 -0.021844609 0.0059465067 -0.05940134 -0.0707076 0.099959545 -0.008877789 0.026756134 -0.029506294 -0.009327174 0.013302357 0.07250971 0.104906395 -0.055994872
인데 0.002443087 0.044149347 -0.025821162 -0.056234993 0.029309658 -0.015326068 0.0350663 -0.02773387 0.04740179 0.005313131 0.0042489637 -0.011241244 0.053042762 0.027228264 -0.021998284 0.024630697
다고 -0.069027595 0.052907996 -0.31694862 -0.12878187 -0.053565253 0.10929985 0.13627335 -0.20781107 0.08754583 0.094461195 0.08693554 0.08037681 0.06316259 -0.008708622 -0.51415664 0.037950847
이해 -0.010647545 0.0701193 -0.06724315 -0.016405128 -0.019324088 -0.026100906 0.01041503 -0.009970728 0.018803487 -0.04808434 0.008045653 0.04841505 0.009505264 -0.024301613 -0.07733734 0.005649923
별로 -0.110468425 -0.10744088 0.10427927 0.13318363 0.19236533 0.13034278 0.16664122 -0.07572833 -0.12972835 0.21532615 0.15925224 0.19226581 -0.0751825 -0.18679762 0.1314733 0.17292702
그리고 0.09996059 0.025782548 0.06675944 -0.03715873 -0.074616306 -0.08154957 -0.021075277 0.02043062 -0.018665295 -0.029142305 -0.020897217 -0.079224974 0.05093932 0.0065104417 0.04758658 -0.019701893
명작 0.09891779 0.11929723 -0.13612747 -0.16754682 -0.22235906 -0.17134087 -0.16107275 0.07218677 0.18627654 -0.14792454 -0.17830524 -0.20878918 0.17018189 0.17835051 -0.20246276 -0.18782923
여자 0.0044365376 -0.04406823 0.017383728 0.024235368 0.0037793815 0.033572987 -0.008794178 -0.06926982 0.0025005825 -0.06623918 0.04875473 0.07941764 -0.004452805 -0.07961508 -0.05057902 0.06275827
^^ 0.05573803 -0.028705114 -0.03914842 -0.024734069 -0.12427938 -0.10807185 -0.13258724 -0.045379218 0.09481043 -0.046325292 -0.055462357 -0.08960647 0.089596614 0.07132853 -0.030802876 -0.06085248
역시 0.0736174 0.061390128 0.030410936 -0.06141685 -0.09093777 0.002660631 -0.07465013 -0.011377989 0.05805875 -0.061970677 -0.013311676 -0.046598516 0.06818753 0.038122647 -0.0052543427 -0.043482885
난 0.016843092 0.11621137 -0.118978314 -0.07213488 -0.02128037 -0.0007865239 0.017691104 0.015257253 0.050529312 0.11435853 -0.017686859 -0.057710014 0.02932357 0.015493913 -0.108056724 -0.033106208
이상 0.00044386322 0.018963119 -0.008231868 0.021978043 -0.051134437 -0.0071735624 0.035172023 0.052768674 0.024305083 -0.02387795 0.04649211 0.023815239 -0.026241014 -0.017796475 0.041987672 -0.044576805
또 0.08410994 -0.033366203 0.0048733247 -0.029955963 -0.045354743 -0.01878221 -0.039170507 0.020318862 0.019198216 0.006481231 0.0107503515 -0.03571971 0.058282435 0.08552875 0.19073477 0.018298145
걸 -0.013718569 0.018995097 -0.0008443069 -0.013676018 0.024030961 0.012458929 0.024390645 -0.030886259 0.045535542 -0.019304007 0.07081971 0.039641447 -0.02888 -0.0658734 -0.07430669 0.023652257
한국 0.02567152 0.029327603 -0.05459958 -0.010095801 0.007917803 0.0062848283 -0.011750905 0.028927444 -0.050786305 -0.010925547 0.0075153015 -0.031042065 0.021073895 0.025328321 -0.03171544 0.013394489
는지 -0.060714614 -0.043079335 0.067825384 0.041860454 0.016865209 -0.0037820155 0.05333546 0.024172954 -0.03841727 0.10743403 0.052942026 0.019455858 -0.06634813 -0.047721095 0.062971905 0.06763745
많이 -0.01943605 0.008859966 0.032156054 0.033597775 0.031450547 -0.02878018 0.029181054 0.010260387 -0.03123146 0.058631137 -0.037681345 -0.048799958 0.04943911 0.007718724 -0.019075584 -0.005914478
에게 -0.050046477 -0.060726978 0.013134039 -0.052098054 0.011226392 0.014310375 -0.04138966 -0.027841374 0.062056594 0.049615726 -0.045115516 -0.039485767 0.014443084 0.059205364 0.028068855 -0.053978436
부터 -0.05307325 0.043582495 -0.0390719 0.041748744 -0.0132225305 0.016841745 -8.3871375e-05 0.011549226 -0.0120910145 0.056067735 -0.023797542 0.022025933 0.008263626 -0.00080946606 -0.08868172 0.058322985
만든 -0.016355742 0.03180974 0.03646156 0.0033108273 0.034430023 -0.003418405 -0.04899612 0.0034782283 0.025344439 -0.038112894 0.019173216 -0.033830266 -0.009612608 -0.03339133 0.015133314 -0.048434246
주인공 -0.04807891 0.032164175 0.03459631 -0.045114048 -0.017863903 0.023512881 0.017385626 -0.012672346 -0.022594053 -0.039238784 0.049208134 0.034051154 -0.05938359 -0.03273071 0.009743286 0.0031122202
받 0.01892224 0.05049724 0.04990806 -0.0139988735 -0.027029557 -0.04562645 0.019694742 0.01958437 -0.011897 0.001715019 -0.039323594 0.030680923 0.034772173 -0.018695258 0.019212734 -0.03652225
합니다 -0.045405563 -0.12809357 0.0012355198 -0.049750667 0.01155362 0.012704599 -0.038192604 -0.0024709546 0.015034617 -0.03645215 -0.07331994 -0.06534657 -0.03818524 -0.0034632403 0.091488905 -0.06505984
우리 0.07393715 0.032174613 0.0076437877 0.0002747181 -0.041928988 -0.001706246 -0.049226537 0.054745078 0.03741318 -0.018982828 -0.029043427 -0.030627951 0.011300208 0.09549889 -0.00020669797 -0.07987495
두 0.06260829 0.0124248015 -0.006718695 -0.026497273 -0.013989508 0.042403094 0.0025963944 -0.02517024 0.050861303 -0.023018833 0.06386107 -0.026072798 0.0005605872 0.030425252 -0.05080528 0.03576099
살 -0.014005545 0.0531257 -0.06754283 -0.056588054 -0.048631873 0.0069834064 -0.0066302028 -0.042778663 0.067300916 -0.030092845 -0.060196728 0.02327851 0.024236133 0.04642833 -0.1222639 0.016267896
!! -0.024320476 -0.100964285 0.022252865 0.025020717 0.011740189 0.028100375 0.01884428 -0.07012526 0.0354478 -0.05406333 -0.04331187 -0.013792419 -0.0029911343 0.005282392 0.008173114 -0.02460666
길 0.02852787 0.016337037 -0.034899727 0.016230436 0.010989562 0.03384852 0.007987162 -0.014701097 -0.053391803 -0.02122363 0.03437055 -0.03591051 0.027639013 0.038095407 -0.042003475 0.02846397
엔 0.029089814 0.001482874 0.029741215 -0.033366 0.045819294 0.014088923 0.05719571 0.011442787 0.01529752 -0.08477717 0.05020607 0.029754737 0.020203095 -0.02053906 -0.029606974 -0.030163836
괜찮 0.119167216 0.14571239 -0.09761133 -0.14232406 -0.12700118 -0.059480045 -0.06835441 0.09415612 0.18045518 -0.15363517 -0.054156996 -0.10361399 0.10082676 0.11508987 -0.14303647 -0.06251357
기억 0.026080988 -0.005695023 0.020362645 -0.05737415 -0.033605326 -0.041238084 -0.061780564 -0.029397037 0.012848725 -0.06674204 -0.0023010878 -0.0830995 -0.021243297 0.037681125 -0.05934303 -0.026861964
연출 -0.03279301 0.011065401 -0.015883053 0.037030295 -0.024562223 -0.0004031404 0.059087425 -0.036098868 -0.012938464 0.10186506 -0.013012702 0.04723426 -0.01979126 -0.059765767 0.03436855 -0.019317826
한다 -0.047903676 -0.05202352 -0.052276805 -0.035427548 -0.014777551 -0.027880793 0.024355847 -0.08164822 -0.013963696 -0.086453356 -0.008689316 0.013714731 -0.016829167 -0.015535536 -0.0750906 -0.04133996
때문 -0.026999585 -0.003790454 -0.111221984 -0.06680352 0.032509062 -0.013925622 -0.03407354 0.018156352 0.009093926 -0.031177962 0.046858724 0.015920043 0.0008950596 0.011457573 -0.09717594 0.0014953581
이나 0.021766663 -0.028704701 0.06479622 0.037811853 0.03453323 0.0684992 0.012139276 -0.028494427 -0.07698527 0.079073615 0.01754129 0.08183081 -0.08420977 0.0036045902 0.01439143 0.08165771
ㅎㅎ 0.08218109 -0.04507415 -0.010943922 -0.00723854 -0.115588106 -0.051279318 -0.054020144 0.04359561 0.06851574 -0.113902554 -0.09989399 -0.09043314 0.02059792 0.087718666 0.06010275 -0.07536033
요 0.045022253 -0.021887558 0.0117686 0.0055834837 -0.05520525 -0.04570034 0.023309965 0.021408413 0.017760688 -0.03475319 -0.028436925 -0.020125166 -0.026832057 0.04229867 0.038093988 -0.055018406
저 0.077445 -0.012418202 -0.017873758 -0.039659936 -0.032026947 0.029245216 -0.038163286 0.031949405 0.045523338 -0.017454123 -0.038109384 0.016053945 -0.029617755 -0.02991418 -0.04689165 -0.0007523347
재 0.013596704 0.019188207 -0.015584594 -0.06766432 -0.020967515 -0.025740862 -0.1004466 0.039604943 0.08454224 -0.021974267 -0.038696196 -0.07898195 0.11253502 0.05853934 -0.055777173 -0.09217245
꼭 0.107913055 -0.010434242 -0.08138897 -0.12527676 -0.06537449 -0.110798866 -0.09957892 0.071436144 0.11332382 -0.104932 -0.057456505 -0.10982237 0.08921381 0.098322436 -0.1206575 -0.09691336
랑 -0.034885522 0.03687831 -0.01267093 -0.041623104 -0.023166709 0.030955264 0.00073992566 -0.048412174 -0.041369542 0.042002548 0.08390145 -0.0040566614 -0.0054078875 -0.0288553 -0.034583077 0.019249752
며 -0.009985139 -0.0020036995 0.008221982 0.0055900286 -0.011817947 -0.01663383 -0.003805599 0.010855893 0.047108356 0.0017776412 -0.03982053 0.007465055 -0.026463736 0.060078222 0.031331398 -0.024051001
현실 0.05561977 -0.0025983546 -0.052205637 -0.09577101 -0.02320083 -0.026058733 -0.0410554 -0.007550894 0.022761313 0.0075291926 -0.08840331 -0.08512722 0.085876785 0.021921456 -0.032704514 -0.07436247
긴 -0.02972753 0.10792355 -0.17102294 -0.030701635 -0.0378943 0.04450742 0.053251848 -0.10705346 0.02138559 0.15244886 0.05514677 0.06432208 -0.012322645 -0.09818584 -0.23335077 0.035393734
ㅡㅡ -0.037864093 -0.021603534 0.1598901 0.072978 0.07225205 0.046771187 0.08123341 0.04246563 -0.091873154 0.07581605 0.12020853 0.09052964 -0.047031734 -0.11655039 0.12627785 0.068501234
무슨 -0.04736776 0.018547224 0.038297035 0.10864881 0.037223678 0.0901765 0.045242004 -0.07508277 -0.034488063 0.085722044 0.068415746 0.092344254 -0.12189423 -0.04751628 0.020929608 0.1335668
내내 0.04733062 0.004325154 0.027632203 0.010166231 0.055182837 0.047157366 -0.0057949712 0.012284679 -0.06718543 0.11568706 -0.0035357703 0.006345186 -0.03166955 0.0017123211 0.1056888 0.007322683
결말 -0.041895557 -0.018331926 -0.015285612 0.022697818 -0.015167549 -0.034637824 0.042644765 -0.01618417 0.00048945576 -0.016300082 0.02004527 -0.0364485 -0.032406442 -0.027640235 0.048256155 -0.032738846
죽 -0.05229289 -0.01084803 -0.00074263953 -0.03902305 -0.0022283327 0.0066120517 0.058848653 0.012025272 -0.027079664 -0.013691008 0.023269564 0.021677162 -0.055273734 -0.043364204 0.061201986 -0.014710446
남자 0.050346356 -0.042054445 0.070181556 0.017338054 -0.042873226 0.009534429 -0.022486787 -0.025578447 -0.039359175 -0.015682304 0.034996137 0.030740155 -0.044515997 0.018331911 0.055366106 -0.027409257
세요 -0.024274178 -0.017422576 -0.01877028 -0.049199466 0.02740467 -0.039753687 0.053966057 -0.027890574 0.060546104 0.0045134495 0.05171768 0.0029949239 0.025543483 -0.081464745 -0.066053316 0.040852066
전개 -0.061451465 0.033437945 0.069200404 0.016337296 0.07460124 -0.0150707215 0.09196774 -0.005358976 -0.052014098 0.087234855 0.027409289 0.061184898 -0.039048184 -0.035658058 0.050311122 0.026232196
마음 0.081993565 -0.019711532 -0.07422703 -0.025333807 -0.11029775 -0.062706105 -0.024341255 -0.010316642 0.09348352 0.007087075 -0.101977564 -0.093128525 0.044942122 0.11482827 -0.06953439 -0.06473079
소재 -0.09705032 -0.03291019 0.04095071 0.039129384 0.063683614 0.047104374 0.07575744 -0.067200765 -0.01907457 0.043349385 0.08624933 0.0749004 -0.0028440226 -0.06440517 -0.0816515 0.03813983
속 0.02656941 -0.008749558 0.03738251 -0.014985696 0.057321556 0.0099355765 -0.053984605 0.069389015 0.029798718 0.00591354 0.0020184554 -0.043631 0.00258357 -0.018602552 -0.0086404225 0.03294753
공포 0.026551377 0.019652689 0.01729778 0.008494051 -0.010130967 -0.006887057 0.06468087 0.025189044 -0.0791078 0.03886118 0.060047902 0.029441819 -0.05278487 -0.03322969 0.069159076 0.07867543
아서 0.030366093 -0.031738646 0.011823767 0.067701645 -0.042040665 0.057600897 0.04266263 -0.021093916 -0.003278643 0.058943514 0.04483947 0.019935021 -0.044014566 -0.054043993 0.0013550416 -0.022465343
다른 0.014323737 0.018519571 0.10114926 0.042522155 -0.0418921 -0.045029726 0.02234345 -0.025325805 0.022784282 -0.056393735 0.009094024 -0.016388856 0.032398406 -0.028211582 0.033770278 -0.061583538
씨 -0.001644307 -0.015156966 0.023881383 0.018947933 0.005843009 0.008724819 0.022023002 -0.0012155952 0.014333376 -0.027393531 -0.019502835 0.0022699714 -0.056856617 0.002722897 0.11201509 0.03309345
인생 0.07124694 0.10418167 -0.08614271 -0.0760442 -0.109426074 -0.11952994 -0.03217764 0.025700007 0.06180395 -0.10326992 -0.09784123 -0.080431156 0.09550077 0.019668894 -0.2321026 -0.09144701
~~ 0.080413334 0.026200112 0.08256885 0.015069245 0.021239579 -0.03801682 -0.033846658 0.074431054 -0.04592915 0.03416555 0.027082508 -0.010571645 0.031866565 0.021250628 0.16081738 0.019364422
짜증 -0.14764921 -0.10702172 0.1960206 0.11593276 0.14115337 0.10968467 0.12839404 -0.020698259 -0.1412986 0.113930315 0.19560818 0.21014991 -0.22341879 -0.14057048 0.18929501 0.13868438
짱 0.10342845 0.009990228 -0.096502244 -0.06739588 -0.1511355 -0.09755186 -0.11753949 0.05027413 0.09567555 -0.14183377 -0.09245488 -0.124962874 0.09012204 0.15086925 -0.06926396 -0.12857178
뿐 0.05526286 0.08786438 0.009933156 0.013991432 0.070213675 0.092601866 0.07875174 -0.04650825 -0.01434012 0.103714794 0.06274176 0.0809221 0.016328394 -0.05899079 -0.011126051 0.049123377
은데 0.054407496 0.072402865 -0.117537096 -0.006339592 -0.016378045 0.044534653 0.03745066 -0.028605832 -0.0036311192 0.0067262375 -0.011072544 0.05402894 -0.007639039 0.024588859 -0.19549581 -0.012931864
별 -0.05128658 -0.0065435963 0.008719057 -0.019976042 0.004225512 0.012163731 0.009487171 -0.009281224 0.015116295 -0.0038524643 0.0693077 0.042017996 0.03431075 -0.056372516 0.04986395 0.05639227
아요 -0.016107617 -0.022602674 0.019916221 0.02695052 0.0056407843 -0.032775827 -0.08452634 0.039891176 0.009814512 -0.0051414906 -0.07338718 -0.08633399 0.06033346 0.04967732 0.15348987 -0.07730736
유치 -0.15563257 -0.06492539 0.080353394 0.13610484 0.13574591 0.10767366 0.13154657 -0.1576105 -0.10688184 0.19096346 0.08741148 0.14531127 -0.055801917 -0.13194397 0.03861617 0.09690633
가장 -0.026404476 -0.013113484 -0.03588012 -0.029379705 -0.03612655 0.049092982 -0.011494776 -0.044680763 0.0036331746 0.010193143 0.036161073 -0.018520853 0.0034584305 0.04088987 -0.01734672 -0.025668591
필요 0.11675038 0.043169353 -0.0019734956 -0.082514726 -0.07861261 -0.08535257 -0.14048067 0.13825698 0.14396599 -0.18750076 -0.094830856 -0.11283612 0.15994352 0.10600882 -0.09547458 -0.08874174
음악 0.045969736 -0.0012537946 0.023891697 -0.0055914214 -0.033336286 -0.0020509989 -0.01879812 -0.0065484447 0.028201742 -0.036600135 -0.09684165 -0.08451083 0.026255067 0.073429786 -0.046496008 -0.07099296
) 0.033181194 -0.0016234823 -0.034009166 0.030491276 0.011296028 -0.013116078 -0.0070608575 0.020233084 0.027156392 -0.04133391 -0.05222706 0.033534158 0.026192121 0.008161432 -0.0027867728 0.027391352
일본 -0.044563927 -0.060521383 0.017250646 0.047776863 -0.008573359 -0.02042844 0.06674113 -0.032489996 -0.01999223 -0.01880764 0.057659198 0.027096067 -0.0064169094 -0.0069710403 0.01951756 0.035781976
낮 0.1502538 0.08879945 -0.14033909 -0.15403475 -0.08586526 -0.09837261 -0.15358683 0.16782331 0.102588326 -0.045496915 -0.14307103 -0.106438905 0.12667803 0.17828077 -0.099978544 -0.13811286
아이 -0.035980932 0.0012922125 0.0837096 -0.0028263684 -0.025110584 -0.040159956 -0.014658635 -0.0024067021 -0.05984642 -0.037135106 0.005335231 0.023176156 -0.023748511 0.03793903 0.15054755 -0.011774363
;; 0.031146856 0.009523226 0.07175698 -0.032655556 0.055866994 0.037055664 0.028467515 0.0025041802 -0.044703964 0.041052517 0.09253912 0.08540327 0.018938554 -0.05231933 -0.021762418 0.030230079
오 -0.0061576813 -0.0125269415 0.010801176 0.04278118 0.05363638 -0.06240274 -0.03716428 0.0455931 0.03462142 0.042884633 0.029532766 0.014382967 0.02339956 0.019940158 0.066693105 -0.008834448
반전 -0.0050749485 0.0430339 -0.08866396 0.011177918 0.0035453213 -0.01790615 0.014665522 0.056207255 0.034946896 -0.013095561 -0.067884095 -0.0073315823 0.048787467 -0.020081053 -0.07816346 -0.059621744
수준 -0.06765243 -0.01154688 0.09288637 0.087843694 0.12774669 0.03505293 0.13032818 -0.03939966 -0.09980164 0.055086553 0.14071985 0.095814735 -0.05032263 -0.06541497 0.025954567 0.045690987
다니 0.008455689 0.058152523 -0.018774511 0.018429918 -0.03819579 -0.03467931 0.032963213 0.01388845 -0.045172725 0.04249229 0.056182124 -0.028830696 -0.031264782 -0.008918326 0.09281333 -0.005766241
웃 0.05165129 0.0021375194 0.02671782 0.0018522344 -0.054277156 -0.036789194 -0.0275639 -0.026517743 0.0452546 -0.0175818 0.04813473 0.002363658 0.0059058154 0.017996388 -0.060219906 -0.020942962
매력 0.083256975 0.06890063 -0.13416237 -0.13503508 -0.10304957 0.012915223 -0.035426952 -0.023843635 0.111473225 -0.003522932 -0.08544297 -0.09035184 0.052931365 0.020460768 -0.2486822 -0.050706334
맞 -0.03353167 0.021907741 -0.050592132 0.03782445 0.058046617 0.046357397 0.086791776 -0.021561591 -0.026114052 0.041256722 0.032508466 0.037874106 -0.077371195 -0.0060274685 -0.016133888 0.023926672
인지 0.03750781 0.015361412 0.07703436 0.030396696 0.028924134 0.0008758656 0.021984551 0.024061587 -0.037555143 -0.050877698 0.011602434 -0.012725056 -0.0042682933 -0.0057100924 0.073860995 0.014832108
가슴 0.034012616 0.045335315 0.03668946 0.015380055 -0.1044873 -0.04049653 -0.062781096 0.08337117 0.007859701 -0.056339275 -0.122853525 -0.13832629 0.014478677 0.12165339 0.135757 -0.07375268
없이 0.029070621 -0.025999196 -0.07279923 -0.0459787 -0.039804984 0.021212973 -0.00017844915 -0.078869246 -0.011433596 0.08429736 0.023027396 0.048279494 0.033299744 -0.015895767 -0.08887414 -0.0037428997
원작 -0.025356438 -0.066808455 -0.030990645 0.029267304 0.06378513 0.040810786 0.07139314 -0.08107809 -0.038098034 -0.029392418 0.07211047 0.057895534 -0.052444305 -0.034398813 -0.003695983 0.08187563
ㄷ -0.00061291957 0.0415509 -0.014594963 -0.006454092 0.02022279 -0.025269976 0.033852838 0.06522092 -0.040597834 -0.024952162 0.012945707 -0.023785632 -0.02463431 0.059986103 -0.016511708 0.015669696
인간 0.03056952 0.030844163 -0.05586652 -0.09418965 -0.023900267 -0.035341144 -0.040674713 -0.023063675 0.028365185 -0.040684246 -0.066677034 -0.038391113 0.046725113 0.04203793 -0.111783385 -0.05181261
데 0.017425802 0.07806884 0.0003738657 -0.011128642 -0.0136947995 0.021131797 -0.017880004 -0.04731631 -0.0030803184 0.035335492 0.059386175 0.057358615 -0.030672584 0.025354587 -0.09322282 -0.029070444
굿 0.14482903 0.13821176 -0.19169904 -0.17958921 -0.23400006 -0.15038371 -0.109956615 0.12064298 0.15752424 -0.13030711 -0.21081617 -0.18636934 0.17137541 0.09802183 -0.18151604 -0.16478242
ㅠ 0.0020967564 -0.010761687 -0.051465962 -0.009317527 -0.039455436 -0.067929894 0.016721077 0.0112669105 0.06643659 -0.041900128 -0.0106743565 -0.014271034 0.014065431 -0.0034944853 0.04374037 -0.014327722
높 -0.15110886 -0.11676636 0.047421113 0.050035138 0.029494317 0.10289194 0.0665358 -0.1248755 -0.049596325 0.0058785668 0.0741481 0.06755801 -0.050463043 -0.11300743 -0.00092242996 0.031359486
밋 0.03994812 0.057721872 -0.14540385 -0.089428425 -0.09018328 -0.10290727 -0.08867786 0.0720868 0.039704528 -0.11500395 -0.11733834 -0.08431035 0.1062054 0.08343792 -0.084016316 -0.056949757
( -0.044950154 0.031354893 0.0419268 0.06153033 0.010558897 0.02348424 0.0012952561 -0.02360866 0.017935177 0.030958416 0.00061258883 0.04900108 0.021071486 0.0028119155 0.048363693 0.02727758
만드 -0.013917844 0.05879342 0.015497546 0.023910498 -0.018738043 0.036876194 0.02706144 0.04533557 0.005954691 0.03501868 -0.023308704 0.049718175 -0.042870417 0.0016238912 0.032024007 0.022275113
급 -0.041330423 0.044515993 0.02222661 0.031388216 -0.008691403 -0.015870301 -0.02400387 0.041876473 -0.00550077 0.0069416636 -0.0065259817 0.044889223 -0.039275426 -0.026235888 -0.014280404 -0.014332703
눈물 0.09601657 0.076867566 -0.06961201 -0.117967956 -0.12991723 -0.07262076 -0.08325276 0.063727714 0.053317647 -0.106093645 -0.12209512 -0.09036858 0.058203932 0.124539964 -0.030606283 -0.14288373
보여 0.015592305 0.025884101 0.00020435714 -0.02141989 0.04151114 0.01062219 -0.01751827 -0.0064637614 0.0057095615 -0.052244518 0.0011608385 0.041537568 -0.02416696 0.035313517 -0.0055655027 -0.038593072
준 -0.021494651 0.025900405 -0.05258299 -0.010955367 -0.06985766 0.028018365 -0.019849181 -0.07424234 0.06793026 -0.11333423 0.020108428 0.025870658 0.047237694 -0.036421936 -0.08958093 -0.060493007
찍 -0.056564353 -0.07618407 0.03781631 0.11567043 0.024944715 0.049327843 0.0011202416 -0.040130828 -0.104468465 0.012075333 0.089178495 0.056287453 -0.0782195 -0.072704405 0.0953429 0.028192557
인가 -0.026621103 -0.057973437 -0.00967901 0.07094076 0.047986906 0.013228469 -0.0017646165 -0.023994593 -0.010796549 -0.016316744 0.033959482 0.013325133 0.014995682 -0.024167133 0.07362711 0.022268143
노 -0.21840554 -0.12576132 0.19273278 0.20381936 0.19031507 0.16456744 0.16604973 -0.1123179 -0.1980584 0.13188088 0.13513246 0.17162679 -0.20311625 -0.18309744 0.16467863 0.19988553
을까 -0.017618347 -0.0049481755 0.039961737 0.01100127 0.023564585 0.091411784 0.015957844 -0.083716944 -0.0665665 0.02235323 -0.026632689 -0.011155577 0.024538185 -0.0063585695 0.030664673 -0.015103117
용 -0.014189917 -0.033835772 0.06405794 0.03283359 0.032045394 -0.0045451755 0.01054311 -0.0193699 0.005434153 -0.030782253 0.0648159 0.0013143016 -0.040992565 -0.011830277 0.013284474 0.05180137
코미디 -0.06800611 0.02707332 -0.0300132 -0.003984859 -0.010857541 -0.011283157 0.045499947 -0.00780314 0.028317282 0.00011550767 0.06329604 0.03200866 -0.0648466 -0.039351646 0.012273328 0.066740826
마 -0.03423079 0.021136295 -0.0074441144 -0.007753478 0.046316165 0.063919455 0.06116064 -0.052546732 -0.08039032 0.018742735 0.06336921 0.063207105 -0.01975265 -0.055107687 0.0503423 0.030817408
화 -0.031048588 0.048727192 0.0858792 0.014752763 0.008106398 0.010092523 -0.0034229115 0.017580818 -0.06536685 -0.003328559 0.036630873 0.023647191 -0.05560932 -0.0627546 0.09842175 0.02606923
신 -0.004791669 -0.016019417 0.0012528106 -0.0745883 -0.042651515 -0.02891897 -0.043283407 -0.023265824 0.030747762 -0.03840234 -0.06320686 -0.023668515 -0.0044586877 0.033372052 -0.023453107 -0.008047368
모든 0.05115318 0.062727734 0.0010794665 -0.044816002 0.025534129 -0.003605625 -0.04529957 0.039919138 0.030890677 0.04893766 0.014432889 -0.068583995 0.03955313 0.043769352 0.12173992 -0.024681726
쓰 -0.02322329 -0.02925071 0.009325927 0.04556019 0.065345794 -0.009031641 0.0720269 -0.040279437 -0.005325667 0.016887499 0.03439712 0.062005747 -0.028282434 0.0013523966 0.016502619 0.0016153282
여 0.027804527 0.02824274 0.0075988085 0.05151985 0.008718734 -0.022882804 0.0075091748 0.0879667 -0.04218004 0.0768685 -0.011628984 0.04207638 -0.009228982 -0.031552594 0.103984214 0.049310576
5 0.03446236 0.031133838 -0.0030195836 6.4554915e-06 -0.0020990686 -0.030408932 -0.038970236 -0.023359174 0.011139725 -0.11112587 0.004359186 -0.041806925 0.08236554 -0.0017212525 -0.06871298 -0.044166785
아직 0.008813762 0.08053858 -0.05921612 -0.076980114 -0.053631376 -0.05545844 0.019687736 -0.037190825 0.05353523 0.010732273 -0.07508429 -0.07615974 0.010772414 0.05204516 -0.1546329 -0.03545883
추천 0.0011708662 -0.08742952 -0.020801645 -0.06257224 -0.12932505 -0.12905297 -0.021464927 -0.07350572 0.07488585 -0.1184729 -0.13818404 -0.09717361 -0.009470386 -0.016123774 -0.08613435 -0.104823135
처럼 -0.022440365 0.022015745 -0.004516887 0.004723099 -0.03451225 -0.05314681 -0.014013174 -0.017998 -0.002623044 -0.018917048 -0.025527954 0.027691673 0.0025523966 0.0041971523 -0.08752323 0.0047764652
눈 -0.0047653085 -0.068187624 0.01678063 0.004684994 -0.008145633 0.0068263393 0.06398994 -0.07967693 0.02708512 0.06897179 0.0013862422 0.034709293 0.024132822 -0.0008640579 -0.04652652 0.050835084
아닌 -0.006456382 0.018698052 -0.049043316 0.045851033 -0.0004891007 0.06355027 0.081631064 -0.046095125 -0.082668126 0.1748328 0.090707906 0.06973431 -0.029423917 -0.049144775 -0.072249144 0.08453743
자체 0.012024942 0.020981265 0.038038474 0.07573733 -0.003397521 -0.023433754 -0.032495324 0.0020871558 0.0027504952 0.033388436 -0.0029257925 0.012754731 -0.0081966845 -0.0574269 0.104714796 0.03552093
울 0.054962832 0.055102658 -0.03917258 -0.07044796 -0.10174965 -0.08548195 -0.07325459 0.074189894 0.03501131 -0.019059584 -0.09918567 -0.07112398 0.09024196 0.14002295 0.025926104 -0.12783805
몰입 0.11598061 0.054569222 -0.036501452 -0.060902465 -0.014679359 -0.057804637 -0.06407962 0.05001615 0.055810004 0.08525925 -0.0153242815 -0.047119565 0.030655034 0.0035690432 -0.05322843 -0.06985665
4 0.0021383876 0.03895693 -0.007765424 0.053790275 0.022307847 0.08048442 0.051145352 -0.022947257 -0.085573144 0.054916486 0.01765412 0.06575679 -0.06631619 -0.06314887 -0.007880374 0.017682819
대박 0.0880673 0.10219482 -0.09925667 -0.12107523 -0.11835539 -0.16073874 -0.07853778 0.045692828 0.07592349 -0.0875449 -0.15424879 -0.15611537 0.10002317 0.12143723 -0.14474529 -0.0927194
몇 -0.010939815 0.02193626 0.04651057 0.0069716973 -0.0096405335 -0.0011564253 0.02416328 0.07688925 -0.031604275 -0.039272785 -0.033618845 -0.06670782 -0.03387638 0.044715554 0.046068504 -0.013339767
스럽 0.0015219752 -0.015713777 -0.0134433145 -0.0033184774 0.012146887 0.0020685277 -0.042829532 0.06378851 -0.0119350245 -0.019139394 -0.0077867717 0.027900903 -0.023752881 0.0512088 0.00035642408 0.035472907
실망 -0.10407995 -0.032082904 0.16586308 0.15774503 0.21342956 0.21098112 0.1609826 -0.08548419 -0.19952184 0.20534874 0.13741693 0.20735028 -0.122404605 -0.2001953 0.1738871 0.15294607
는다 0.012355188 -0.06279578 -0.031854395 0.0060915938 0.07236086 0.011717102 -0.040069856 -0.011031257 0.015016005 0.015274292 -0.041162476 -0.027374892 -0.030110462 -0.048485525 0.096629195 -0.025272658
대한 0.06683873 0.014813516 0.035110284 -0.0032252579 0.012342361 -0.031289846 0.009855282 0.060229845 -0.01023836 -0.028108735 -0.04117684 -0.03771252 0.052665696 -0.003528648 0.04623235 -0.059468146
죠 0.05998732 0.012458304 -0.06956305 -0.0897132 -0.06162084 -0.06088759 0.030206837 -0.016816352 0.037339367 -0.013425064 -0.057354987 0.017585209 0.039736852 0.048962716 -0.12451668 -0.031315573
란 0.05664939 -0.027117431 0.04662786 0.004427468 -0.0062485635 -0.010141457 0.014139232 0.0373623 0.006804627 0.021763667 -0.06791797 -0.0051548975 0.01659087 -0.0005270665 0.113690615 0.004619447
그런 -0.0010803078 0.009537752 -0.047606487 0.04908221 -0.04903877 -0.0075935023 -0.021534938 0.019031504 -0.025098348 0.07430315 -0.050067898 0.042126734 -0.004633596 -0.026318513 0.03625387 0.003056451
솔직히 -0.059992034 -0.02327876 -0.030865194 0.02012121 0.043741334 0.029184049 -0.008863888 -0.0663176 -0.024530154 -0.010403422 0.0016566482 0.0675073 -0.051625017 -0.025170729 -0.040323187 0.020030309
캐릭터 0.0068893973 -0.024095943 0.06575918 -0.025173245 0.03437225 0.03541023 0.06790072 -0.037956234 -0.028590554 0.028215693 -0.03579047 0.004497033 0.006774033 -0.051448025 0.10462515 0.0018717694
ㅎ 0.09171664 0.044250157 0.008073499 0.00231649 -0.011424855 -0.031786587 -0.029875012 0.019214144 0.06616605 -0.035808586 -0.04974549 -0.09454776 0.0039585433 0.06122512 0.12197746 -0.02522429
모두 0.025602961 0.11376784 -0.1356242 -0.11006918 -0.12166309 0.02732383 -0.0047527743 -0.05285661 0.018525928 0.067063846 -0.04503239 -0.073324285 0.084517986 0.016045164 -0.18847986 -0.06812263
아주 -0.0058053024 0.03299446 -0.040243447 -0.027016709 -0.027668077 0.025783503 0.056508202 0.014819632 -0.017241828 -0.022779297 0.0502071 0.0025619434 0.0074464045 0.0199984 -0.10954151 -0.031826433
- 0.008383211 -0.008881122 0.010597914 0.025096698 -0.010397595 -0.03670869 -0.00082360976 -0.024421392 -0.031233592 0.031434704 0.03733069 -0.03995366 -0.042109787 -0.011609998 -0.030797122 0.017448677
가족 0.012921302 0.040776655 -0.04162309 -0.03050127 -0.058981586 -0.013881318 -0.012853443 0.009850163 -0.011371638 -0.026217505 -0.04504659 -0.031904068 0.01998952 0.024351362 -0.04977718 -0.04664205
여운 0.21569756 0.120762594 -0.17052245 -0.16820031 -0.1655687 -0.20784009 -0.22907083 0.20667139 0.15128677 -0.1835204 -0.19235364 -0.16349466 0.18712552 0.24349613 -0.025923762 -0.16486067
건지 0.0075350404 -0.030939898 0.05509751 0.017915932 0.041059393 0.074670255 0.05685891 -0.0014365308 -0.05759666 0.07902407 0.075959854 0.07271975 -0.043390546 -0.039673958 0.10637608 0.06466764
전혀 -0.0735917 -0.019035432 0.03311531 0.049257785 0.03992431 0.06965885 0.09064931 -0.050239675 -0.014260594 0.029481137 0.06537333 0.07475436 -0.015668927 -0.05751822 -0.00644885 0.038328364
연기력 0.021367112 0.0033410133 0.02763858 -0.028878752 0.038489487 -0.000329175 0.03884049 0.023065992 -0.011751448 0.09048648 0.000876559 -0.03593524 -0.0071843374 0.016991068 0.054040436 -0.01755705
나라 0.0046059047 -0.008326636 -0.014264872 0.040318318 -0.0023383482 -0.003722271 -0.01369188 0.07557893 -0.021221371 -0.052852433 0.02137159 -0.00530022 0.025888674 -0.010816143 0.014541988 -0.0016650553
후 -0.036053393 0.03738289 -0.032629833 0.032150693 0.035729714 0.045186415 0.041832667 0.0020271856 -0.0034658476 0.008111035 0.011244622 -0.0067580123 -0.01984182 -0.030834956 -0.075301096 -0.018765016
될 -0.07959456 -0.034757767 -0.022697307 0.036859896 -0.016157355 -0.028180141 0.054091476 0.008189997 0.031070368 -0.020139584 0.05233392 0.043404527 -0.026194576 0.015296404 -0.0064342218 0.002885367
다면 -0.038377877 0.010053666 -0.047850132 0.016565556 0.03352781 -0.025921877 0.013420317 -0.002103012 -0.042578388 -0.052127786 -0.017282272 0.0237471 0.031880267 -0.014611311 -0.085959606 0.02112799
뭔가 0.016413337 -0.022638533 -0.016562574 0.046842087 0.03140912 -0.028581303 -0.031747904 0.011779259 -0.011079653 -0.006202909 0.0018494079 0.018995082 -0.01230496 0.0133761205 -0.022814993 -0.019754859
그래도 0.0015683277 0.10654657 -0.109591804 -0.05485922 -0.06810082 -0.07665116 0.014297735 -0.011602668 0.06843217 0.00085693557 0.038897347 0.0030208929 -0.018983368 0.021128237 -0.15614083 -0.02948698
; 0.0077881245 0.052071713 -0.015144342 0.011060119 0.009335945 0.01233804 0.05341706 0.0091299685 -0.052016728 -0.010881875 0.03786531 0.071012996 0.0044078445 0.010950364 -0.07213601 0.028407365
시리즈 0.05471334 0.04545612 0.019043442 0.030919442 -0.050966565 -0.003496657 -0.044146314 -0.028352425 -0.020667268 0.0671604 0.017186891 0.02206067 0.033189677 0.057204697 0.02416584 -0.06209301
근데 0.06582425 0.028666096 0.0085718185 -0.024814542 0.016125368 -0.045916967 -0.050600316 0.08978755 -0.025327643 -0.009238497 -1.5765785e-05 -0.018086724 0.021456197 -0.018944856 0.100786924 -0.058220282
작 -0.007701426 -0.023501886 0.048703983 -0.00010677604 0.0024940702 0.020365827 -0.027616074 0.072034106 -0.06483763 0.006289472 -0.0058423937 0.025466152 0.014813765 0.042005852 0.02477715 0.06616764
표현 0.054691646 0.06600471 -0.108669415 -0.06093728 -0.053612653 -0.027615855 0.018365975 0.094053835 0.06172467 -0.05552267 -0.07248332 -0.053140894 0.07366426 0.10433929 -0.16930707 -0.10176575
모습 0.08072712 0.03440638 -0.05096628 -0.052136242 -0.053802755 0.008866459 0.022671508 0.03612158 -0.017446347 0.0058637196 -0.049562544 0.0066805515 0.013097084 0.03184048 -0.06141717 -0.056936014
공감 0.03205168 0.064202435 0.011981073 -0.06731216 -0.0057446314 0.027592372 -0.007610444 0.030570745 0.06364577 -0.014552519 0.047886122 -0.038616043 0.035293777 0.04589183 -0.09133802 0.035653234
계속 0.10517289 0.0527598 0.050331853 -0.014395059 0.0018777247 0.023160368 0.0012673767 0.10690606 0.053860106 0.015671492 -0.023795731 -0.038973033 -0.036152396 0.07042152 0.1979739 0.0105377715
먹 -0.032955904 0.034978498 -0.0011024075 0.058463205 0.043662243 0.037553493 0.053138252 0.008022403 -0.05857812 -0.011998735 -0.0063835443 -0.010113681 -0.037622813 -0.03441454 0.011132387 -0.016745305
"" 0.007985331 -0.018353703 -0.055349566 -0.008694259 -0.012032064 0.057529643 0.058925364 -0.025846701 0.04392152 -0.04928714 -0.025499001 0.019912386 -0.025320688 -0.010125325 -0.07633592 0.019208932
제목 0.008544195 -0.034878157 0.011593443 0.0005442366 -0.00042662054 0.039307438 -0.023847813 0.052700367 -0.0199503 -0.017304728 -0.0050482783 0.022123305 -0.018245408 -0.002848308 0.09664072 0.022882078
7 0.027822748 0.0036888928 -0.048818834 -0.09091688 -0.09345423 -0.022824215 -0.0565383 -0.028678585 0.10745136 -0.069946356 -0.040467467 -0.013689651 0.022448607 0.09348309 -0.20622715 -0.03200834
이랑 -0.014729598 -0.011461677 -0.021321306 0.015982663 0.03439124 0.04500908 -0.028992148 -0.018377619 -0.007942107 -0.041133177 0.057020653 0.0114788255 0.038738202 -0.05262481 -0.04758189 0.0312764
극장 -0.031956322 -0.06986263 -0.041337755 0.00795806 0.041493505 0.07549149 0.016469171 -0.0118506765 -0.0004013733 -0.0027808468 0.012596518 0.022629615 -0.014566434 -0.02310939 0.041947268 0.05172675
치 -0.04963139 0.04371887 0.030608123 -0.0035428018 0.042287 0.006276171 0.07043486 -0.0027712947 -0.047993515 0.10313999 0.058193587 0.046799883 -0.03135423 -0.052725833 -0.017588101 0.012847273
비 -0.0067256177 0.03256421 0.07005663 0.04697176 0.07355087 -1.3576209e-05 0.08843253 -0.042472128 -0.04718779 0.02661778 0.010355447 0.054128807 -0.013435529 -0.08485954 0.0534368 0.06255396
이걸 -0.0565204 0.0046044043 0.023862807 0.030094549 0.050209876 0.07946055 0.08024479 -0.007433568 -0.101483405 0.010631381 0.0753255 0.047344744 -0.02967773 -0.08447938 0.11478348 0.08979563
진 -0.02845413 0.10134911 -0.019017873 -0.07457607 -0.017501274 0.032654196 -0.0021611515 -0.037927724 0.07334152 0.011665096 0.041122325 0.024004914 0.021436833 0.025267262 -0.27146566 0.041861586
바 -0.055816267 -0.06953977 0.08141878 0.10332895 0.047884054 0.05778792 0.08248912 -0.10230088 -0.1097308 0.069706574 0.073762305 0.023917811 -0.06514364 -0.09495633 0.09095651 0.10159162
대사 -0.033214435 -0.021470882 0.008819637 0.036895853 -0.018220164 -0.03733999 -0.0053978837 0.005387317 -0.037039753 -0.0024055415 -0.055531096 0.019088812 -0.042386178 0.0051576057 0.058306683 0.03307113
부분 -0.03799208 0.047442 -0.02034452 2.9250514e-06 0.01257057 0.031074785 0.013443035 -0.06448338 -0.042657055 0.040560663 -0.012558702 0.04947667 -0.030052165 -0.042884648 -0.09278185 -0.027752265
그렇 -0.07131332 -0.03950832 -0.011004834 0.036817446 0.098775126 0.008123417 0.08715002 -0.031625707 -0.05581043 0.11953789 0.060498357 0.039210897 -0.064037524 -0.10917896 -0.0034251423 0.1139723
개봉 -0.054509588 -0.035152648 0.05662232 0.012484042 0.023164168 -0.004026288 0.02224256 -0.029156473 -0.013708193 0.04186237 0.057244133 -0.002677908 -0.03205446 -0.058111917 0.06818546 -0.00908645
0 -0.031074675 -0.035879925 0.05756094 0.12543137 0.123312004 0.049742118 0.08182935 -0.0026921674 -0.06318412 0.08742975 0.0713928 0.07439302 -0.081492834 -0.12913571 0.1602434 0.091343075
OO -0.052308436 0.03244353 -0.015397932 0.05651918 0.023534006 0.06338158 0.10259764 -0.009227602 -0.076129526 0.04369161 0.09020313 0.03424605 -0.018250857 -0.021805035 -0.08189176 0.08501593
대단 0.09245604 0.010863466 -0.1078974 -0.02490867 -0.016174683 -0.03244866 -0.053654972 0.056157347 0.093540706 -0.054401387 -0.029471952 -0.06031345 0.048927296 0.06222719 -0.10065882 -0.060008556
어디 -0.056461543 0.034890622 -0.023832252 -0.010966424 0.007800568 -0.017507814 0.07121258 -0.02454121 -0.055136595 -0.038426798 -0.011761189 -0.010925031 0.0076124454 -0.07603727 -0.0137211215 -0.01982505
작가 -0.06107884 -0.118974276 0.11702363 0.062376283 0.09763152 -0.010063486 0.048787873 -0.025925769 -0.103162795 0.05215309 0.040499613 0.05105367 -0.070204586 -0.049737725 0.17162053 0.08302132
된다 -0.016937982 -0.048636165 -0.047614425 0.045968533 0.029019054 -0.08188228 -0.0327356 0.05656774 -0.0231054 0.05384858 -0.072959684 0.0066190436 -0.029406954 -0.016225452 0.02632496 0.020955708
아쉽 0.06413181 0.041330874 -0.05594302 0.003071679 -0.019317545 0.0753972 0.04678444 0.026374144 -0.027124217 0.0052296906 0.0014652933 0.05067799 -0.030188203 0.05659567 -0.107297696 -1.1811862e-05
기분 0.026164046 -0.02307968 0.08345974 0.097683355 0.088374265 -0.005882194 -0.021068707 -0.008314411 -0.08787448 0.033793043 0.056361284 0.028872859 -0.03195564 0.02624537 0.17849325 0.04660749
제 -0.0028856527 -0.012649728 0.059803493 -0.016114287 0.027965602 -0.038891178 0.050424054 0.0009634375 -0.020171905 0.019535389 -0.013112148 0.011108335 0.030020256 -0.01761207 0.029847043 -0.012958361
진심 0.013120795 0.031917118 -0.04635364 0.041846666 0.020031316 -0.0037674387 -0.018072052 -0.0131597165 -0.018818332 0.0025957928 0.021887934 0.0046986323 -0.01728442 -0.01104861 -0.010543019 -0.035515454
타임 0.013886366 0.07700434 -0.028477423 0.013867262 0.02702599 -0.020916045 0.0202612 0.06752376 0.019616041 0.01562054 0.051046025 -0.03490035 -0.006837715 -0.037736584 0.08573811 0.057233155
/ -0.030507967 0.023161277 0.028300814 -0.0046090446 -0.017821157 0.010447845 -0.025038477 0.005829183 0.021449458 -0.013265878 0.050127085 0.052788828 -0.014714387 0.032878775 -0.037799217 -0.021208564
웃기 0.044578217 0.06430416 -0.019736325 0.0020181062 0.0048342617 -0.025935128 -0.01534669 0.053490095 0.045981072 -0.15665598 0.025426839 0.02076299 -0.0015317459 0.061783556 0.024712957 0.002027577
보이 -0.05210935 0.06672194 -0.026378356 -0.056406714 0.024829106 0.008833529 0.050997812 -0.07061367 0.050463453 0.0431835 -0.04403435 0.049023308 0.062010735 -0.038613807 -0.1361901 -0.03201296
놓 -0.034126583 0.028498625 0.011184694 -0.03235413 0.05913633 0.052331273 0.035613224 0.01316314 -0.009832766 -0.016020512 0.021943066 0.047700915 0.023483729 -0.04637196 -0.025943872 0.07886676
해도 -0.04607523 0.020057391 -0.060574252 -0.002830146 0.020987561 0.05438395 0.08184729 -0.005924517 -0.015316314 0.0030286359 0.087691315 0.0067505715 -0.02758308 -0.028125335 -0.10804014 -0.0038520778
이제 -0.012656102 -0.030273879 0.024371602 -0.021362878 0.01283032 0.054137018 -0.013554418 0.023049075 -0.038540483 0.02914068 0.010644817 0.051689092 -0.019987693 -0.004293724 0.10531245 0.0504486
물 -0.042092446 0.022333438 -0.026764408 0.07138593 0.07033518 0.024982557 -0.020821746 0.014366342 0.020801922 0.08161577 0.06768138 -0.014751067 0.012541545 -0.012513244 0.03796813 -0.007320511
봐야 0.046813883 0.058085497 -0.05641149 -0.070708685 -0.10738722 -0.0547848 -0.07405752 0.061738413 0.035514444 -0.041505035 -0.049020335 -0.031969666 0.055825304 0.11123083 0.06322827 -0.0829288
막장 -0.11168518 -0.09973461 0.09234202 0.0805386 0.08389085 0.1184727 0.15201555 -0.099980764 -0.08151115 0.07926957 0.09253149 0.17705204 -0.13448702 -0.08635138 0.034551043 0.14087906
삶 0.0904944 0.040120333 -0.14227955 -0.10911729 -0.10831217 -0.012618524 -0.030927192 -0.0347668 0.06786697 -0.13104188 -0.05762261 -0.09984457 0.121704295 0.08576808 -0.23843466 -0.12194439
친구 -0.009938018 0.014201342 0.03168384 -0.01576892 -0.028082728 -0.027120316 0.032282393 0.0025638882 0.036686342 -0.005420639 0.04175099 -0.016270528 0.018021097 -0.06987029 -0.027521832 0.039349407
잔잔 0.041439254 0.021914583 -0.02469241 -0.10975847 -0.10683338 -0.07186945 -0.026293946 -0.008577149 0.10693288 -0.007930745 -0.03500157 -0.06353795 0.07109207 0.03493469 -0.021074366 -0.0528226
조금 -0.012435314 -0.020574516 0.004907772 -0.03730092 -0.0319883 -0.056599453 -0.018731507 0.004571868 -0.008343762 -0.04232836 -0.071702175 -0.07967395 -0.009921514 0.055790365 0.022681339 -0.03584396
씬 0.024656141 0.029233832 -0.009065222 0.046659574 -0.03642474 -0.040327113 -0.021703523 7.375056e-05 0.00063755416 0.036495 0.029078308 0.037837423 0.011782657 0.0160199 -0.04698122 -0.011672109
딱 -0.00052984856 0.037953854 0.035144422 0.05477235 0.050011 0.068313524 0.024888923 -0.041731052 -0.0049470332 0.021790532 0.01742798 0.057700638 -0.025950806 -0.08615056 -0.0016194681 0.062778056
영상 -0.014012642 0.05303287 -0.025229804 -0.05940226 -0.04040639 -0.02734823 -0.006302083 -0.021290187 -0.01689298 -0.05433666 0.05240094 0.04617641 -0.03818627 0.043966852 -0.065809324 -0.032975636
억지 -0.1387246 -0.07618011 0.0788182 0.12498488 0.102480635 0.13261864 0.1446215 -0.13936216 -0.14247411 0.16798969 0.116556026 0.1404809 -0.16026479 -0.10812893 0.10747489 0.18886046
찾 0.01008909 0.0006588481 0.0027696926 -4.4714616e-06 -0.030401615 -0.081012875 0.031036044 -0.019009838 -0.011968661 0.0071660746 -0.030220913 -0.0090452125 -0.025812322 0.027304735 0.0077437395 -0.022520386
요즘 0.087066725 0.105422325 -0.06808614 -0.051830787 -0.108382486 -0.063214965 -0.08587365 0.057630867 0.04626317 -0.044848897 -0.1413164 -0.06964137 0.06589581 0.085418604 0.0051134396 -0.10144664
같이 0.02100959 0.009064833 -0.043154683 -0.020987678 -0.048224706 0.025486616 -0.0031474924 -0.087300874 0.042055845 -0.02978804 0.041678067 0.016949203 -0.033960886 0.010005401 -0.025269048 0.015283619
중간 -0.04942484 -0.027128233 0.018981531 0.043978002 0.074544914 0.0057939677 -0.008630737 0.051525135 0.011838431 0.017042784 0.04647622 0.048482608 -0.013779099 -0.03578738 0.035324607 0.03340686
" 0.024788102 -0.058591366 0.025518088 0.02363364 0.02400303 0.03020303 -0.038489893 0.013232209 0.019364182 -0.06844079 0.03209323 0.010212847 0.021799812 -0.01291295 0.058478277 0.039697595
구 0.013408466 0.0292625 0.034959495 0.03782749 0.017507583 0.0045229853 -0.062450387 0.04667642 -0.0032619687 -0.05290675 -0.0538497 0.014203393 0.0016399975 0.006186284 0.17178515 -0.043270215
라도 0.0061918064 0.0014210456 0.005306454 0.05673796 0.06931491 -0.028090153 0.01726391 0.037950505 -0.0044331606 0.015355024 -0.021918774 0.057143643 0.0018371539 -0.027478207 0.097289175 0.04666623
스릴러 -0.018580377 0.06690894 0.005605027 0.00067478913 -0.060082827 0.010062224 -0.04659944 -0.025320003 -0.03440934 0.053784214 -0.0014225226 -0.006663712 -0.033811033 -0.025555333 -0.05065848 -0.023281083
가지 -0.019687502 -0.020599443 -0.02323423 -0.034763858 0.015852334 0.018470015 -0.04912089 -0.0046934457 -0.053055577 0.027272316 -0.039420925 -0.0023488386 -0.009567489 0.038214605 0.019382862 -0.006182824
8 0.044519898 0.093096815 -0.10711689 -0.11959896 -0.066604465 -0.035293553 -0.056029946 0.045206714 0.049846675 -0.16402763 -0.105589725 -0.06579141 0.06972858 0.087132215 -0.14210363 -0.053051267
믿 0.019722806 -0.055615127 0.021940641 -0.04725032 -0.004007561 -0.061887383 -0.044181567 -0.017023811 0.05239173 -0.07003702 -0.018886035 0.022150876 0.026326897 0.06407692 -0.014155116 -0.042888775
싫 -0.082638375 -0.04168073 -0.0028825605 0.03366734 0.118351504 0.03409351 0.07152663 -0.013287216 -0.13054137 0.07053629 0.06431359 0.12387165 -0.065788634 -0.08351267 0.0058800424 0.078804314
.... -0.026368143 0.05895122 0.06179573 0.010652486 0.0014841887 0.05135438 0.03939683 -0.009309317 -0.03764093 0.04278405 0.074151084 0.04853702 -0.07010328 0.010290386 0.021527283 0.08132636
나왔 0.013192562 -0.038700294 0.0964154 0.059905462 0.009619723 0.0011180365 0.054788277 0.011591468 0.017666444 0.007863347 -0.017860236 0.04546141 -0.05399991 0.027624322 0.119417764 0.001035955
아까운 -0.061584067 -0.079883344 0.10144303 0.14769448 0.11494573 0.044854026 0.061383214 0.03342793 -0.12872127 0.07793761 0.09423521 0.07308052 -0.10244803 -0.079172894 0.12524106 0.07863281
긴장감 0.047189135 0.11642194 -0.10169031 -0.037924964 -0.02292623 -0.010453134 0.014878614 0.016655985 0.022413516 0.11415279 -0.016729439 -0.0067201494 0.067873195 -0.002801985 -0.090216555 -0.042870883
점수 -0.021490125 0.027656449 -0.02508175 0.04844701 0.030314531 0.059254613 0.026710568 -0.030610109 -0.08399678 0.05425548 0.0054719723 0.07713755 -0.051055007 0.02498894 0.023748536 0.06834399
개인 0.043104853 0.016905019 0.025837915 -0.013492668 0.010930954 -0.03096357 -0.00040406943 -0.01590458 0.04125363 -0.009770534 0.016081987 -0.011961511 0.036547374 -0.0048895986 -0.039278395 -0.011962021
제대로 0.027045343 0.0009958214 0.020015841 -0.059938308 -0.026995333 -0.015279488 0.035727575 0.035505705 0.0094778035 -0.008372434 0.020291321 -0.020333372 0.06273971 0.004692435 -0.025400145 -0.0039697546
부족 0.0030800246 -0.0054417048 0.029025907 0.10606156 0.10714527 0.09270983 0.036043964 -0.039395604 -0.03607583 0.032437015 0.0988192 0.06861457 -0.040452648 -0.099189006 0.055730596 0.010736797
이유 -0.010590983 -0.06653941 -0.002111079 0.039582483 0.014445644 0.016325615 0.052784365 0.014706938 -0.06630849 -0.038543534 -0.020643312 0.04079233 -0.010939769 -0.008429587 0.048864737 0.07381962
노래 0.06499982 0.041273657 -0.006432867 -0.026415534 -0.019706171 -0.0818155 -0.032296784 -0.018037802 -0.022046223 -0.052431613 0.008893589 -0.02121902 0.0011643413 -0.023417674 -0.03143828 -0.00838099
만큼 0.0010402977 0.06978287 -0.07231013 -0.043630872 -0.08468124 0.027103133 -0.035212055 -0.037249412 0.0027564487 0.058524754 -0.010904802 -0.010272985 0.05477849 0.023525808 -0.10559852 -0.0078073125
라면 0.033206247 0.012887918 0.05567491 0.0013393962 0.04923753 -0.02482018 -0.01883997 0.043520182 0.037568547 -0.061773486 -0.016530681 -0.036661074 -0.013375743 -0.019398486 0.051530946 -0.0385182
시작 0.004959145 0.0018653681 0.052043863 -0.011106393 0.014053703 -0.016675044 -0.0254037 -0.03783213 -0.0064103403 -0.007903109 -0.024375819 0.025776332 -0.0067717335 -0.049159393 0.08638437 0.013803079
구나 -0.049073447 -0.0035627587 0.028883757 0.033053566 -0.008703536 0.056399338 0.033890795 0.013208659 0.016078867 0.044040542 0.05101517 0.031054001 -0.021815646 -0.07136957 -0.043287836 0.013231661
잇 0.05258686 0.013954544 -0.016689047 -0.088402376 0.0017223815 -0.05766065 -0.06897403 0.005657924 0.013444783 -0.10489183 -0.00025395083 -0.024905428 0.06431182 0.050244786 -0.001417213 -0.077981144
특히 0.0886699 0.007906808 0.08111729 -0.03622628 -0.009823625 -0.006853435 -0.08397423 0.093876734 0.05072223 0.027003208 -0.10384076 -0.061540898 0.028531728 0.030691998 0.20283838 -0.016007455
한테 -0.026368406 -0.03224878 0.0418835 -0.032321487 0.053842533 0.030187596 0.039370876 -0.009219937 0.017345535 0.010158689 0.04438404 -0.011861476 -0.06074977 -0.017702457 -0.05782531 0.0036033923
날 0.00945854 -0.010170969 -0.02034023 0.0016179176 -0.06359545 0.015448833 0.0044201207 0.0029413656 -0.0035291305 -0.026881684 0.01282097 -0.044993363 0.0076697394 0.030019421 -0.025744457 0.031306073
려고 -0.06052978 -0.002072097 0.027939728 0.013638359 0.07926191 0.07607641 0.023320137 -0.023236837 -0.021416567 0.09701381 0.08029403 0.08130508 -0.05662459 -0.080677554 -0.044652063 0.08383826
제일 -0.03234437 0.042502828 -0.004002978 -0.059464492 -0.047014523 -0.022414617 0.05148596 -0.037662998 -0.03394999 -0.0026310107 0.010852173 0.020703642 0.020221705 0.015286911 -0.02145687 -0.0079651335
아름다운 0.116078265 0.09544586 -0.13429485 -0.09105549 -0.09296017 -0.09496075 -0.061495736 0.11190839 0.08064835 -0.11284772 -0.15031032 -0.09817026 0.06411211 0.13241135 -0.14910181 -0.12835075
시대 0.024291854 0.07701494 -0.009194439 -0.0068928543 -0.04147786 -0.0021111984 0.058435418 0.0173247 -0.014208945 0.047553897 0.04105381 0.031965237 0.011969879 0.026883872 -0.09983752 0.015255944
ㅜㅜ 0.014395398 -0.03353882 0.08407346 0.004075597 0.016748728 -0.038540144 -0.050469752 -0.035959926 0.047288176 -0.081819475 -0.00728557 -0.0020309007 0.047501087 0.0048388164 0.099310994 -0.05624467
어떻게 -0.0050752317 -0.020777516 -0.03245245 -0.06270206 -0.01038687 -0.03233404 0.03976924 -0.007543237 0.0134371985 -0.103804134 -0.032240395 0.03166273 0.03376671 0.023096528 -0.09605454 0.040583294
엔딩 0.03681311 -0.021280574 0.03186995 0.02712111 -0.0031441613 0.007925831 0.0098921405 -0.018365022 -0.01331039 -0.053602647 -0.016256263 -0.04731999 -0.02463904 0.041952703 0.10800837 0.00027488446
당시 -0.036647055 0.030525368 0.05427583 -0.049832422 -0.041289367 -0.049217027 0.00014162308 0.051253214 0.0459328 -0.08428764 -0.02106006 0.017364176 -0.030284146 -0.027105361 0.003674491 -0.05192612
하지만 -0.024797577 0.037053708 -0.11729594 -0.08553045 -0.047813 0.015945792 0.042216174 -0.08432861 0.07219135 0.015603728 0.060624484 0.005775179 0.04062923 -0.051566225 -0.3228019 -0.0035412747
나름 -0.006539791 -0.03262643 -0.06307863 -0.03912341 -0.027508406 -0.07560969 -0.037705157 -0.007991508 0.065606914 -0.14919712 -0.023371732 -0.035602726 0.037454657 0.01747542 -0.10855799 -0.07842788
봐 0.02085729 0.026107855 -0.039032407 0.014161717 0.013872611 0.030345524 0.059399895 0.001383671 0.018268833 -0.026430069 0.020375956 0.013518513 -0.05179139 -0.0076615456 -0.0606344 0.019039754
무섭 0.030003536 -0.012615775 0.052477553 -0.014149146 -0.015438636 -0.027002035 -0.02267076 -0.013965388 0.060097396 -0.08601272 -0.03050649 0.046542685 0.015499391 -0.02728409 0.06677904 -0.004699148
나온 -0.026955115 -0.020673376 0.043307483 0.05218026 0.0063325167 -0.056140494 0.057294797 0.010292426 0.03308183 -0.02043191 -0.04421834 -0.02955885 -0.07042361 -0.0396888 0.14364353 0.008134384
명 0.00859275 0.06241444 -0.027462581 -0.00089972693 0.026997719 0.049520385 0.05470584 -0.061039306 -0.02060522 0.065843634 0.020941084 0.04206711 -0.004924205 0.038019832 -0.121443026 -0.004639733
사 0.0027761539 0.01982114 0.029646456 -0.03808651 -0.036556266 -0.037977133 -0.04995368 -0.0154162 0.04117126 -0.009808022 -0.009495164 0.010473799 -0.014937863 0.0034183555 -0.040922135 -0.055400383
니까 0.05208401 0.04535868 -0.028095026 -0.0011864564 -0.037668984 -0.034879167 0.013844574 -0.029964043 0.03709981 0.013695129 0.043673713 0.015293647 0.021422474 0.035795562 -0.19376507 -0.005151015
오랜만 0.075001284 0.076966606 0.011283694 -0.0069017643 -0.053896964 -0.067093596 -0.07944295 0.116279215 0.07167391 0.06983199 -0.022316298 -0.05254083 0.051479492 0.07867701 0.15688635 -0.04865541
이것 0.013862649 -0.01002119 -0.010965566 0.0013671273 0.0034985205 0.05793811 0.0030069344 -0.055687115 0.017200725 -0.0382121 0.04475697 0.0659667 0.018199034 0.023809887 0.017032929 0.011640174
해요 0.07272592 -0.019384298 0.11664818 -0.045376386 -0.03098186 -0.024694527 -0.021477943 0.035235494 0.01830011 -0.037561815 -0.06177575 -0.0838003 -0.025642436 0.03998304 0.196113 -0.013009334
9 0.044359043 0.13040261 -0.17329155 -0.21307129 -0.17152862 -0.0944888 -0.049098462 -0.010051797 0.16766617 -0.1752018 -0.07834684 -0.060860142 0.10151775 0.08532081 -0.26623532 -0.10998581
팬 0.03610301 -0.006699776 -0.0012136167 -0.033076305 0.0020325212 0.045288093 -0.022920845 -0.01099531 -0.05052465 -0.027067209 -0.020025225 0.052647255 -0.021920016 -0.0028904933 0.03892211 0.0522879
차라리 -0.24279732 -0.21920545 0.1730194 0.21215567 0.25821388 0.22175127 0.1375611 -0.21147843 -0.23004058 0.17217235 0.24129564 0.18778095 -0.18693578 -0.21856566 0.22801733 0.18797696
절대 -0.028587673 -0.05263606 -0.010071689 0.007739131 0.027112499 0.008258996 0.05582639 -0.054808978 -0.020801479 0.05635316 0.054071076 0.00727298 -0.010578487 -0.055279244 0.054312035 0.00268289
세상 0.031388924 0.034355734 -0.027013632 -0.085199654 -0.018932128 -0.029840034 -0.05469602 -0.009171349 0.03444106 0.0009781328 -0.0037275627 -0.0151042715 0.030147202 0.024299523 -0.033816397 -0.035564408
세 0.02019563 -0.033072468 -0.023265343 0.016158596 -0.037169676 0.0598399 -0.013956071 -0.010418799 0.00018475894 0.04355362 -0.004919399 -0.019596107 -0.041356582 -0.02392732 -0.08005767 -0.013156923
못하 -0.0496602 -0.103513926 0.021399666 0.08929685 0.026550382 0.09403625 0.01849448 -0.06022785 -0.04578088 0.04731291 0.037844658 0.08804343 -0.05635972 -0.0749007 0.061125454 0.043880645
의미 -0.007183308 0.03177222 -0.029786501 0.0033412834 -0.012358797 -0.018180849 -0.034080517 -0.014243395 0.00932454 0.04753998 0.032362755 0.0508256 0.008121001 0.038258318 -0.059641507 0.0006555848
던데 0.002994528 0.0037806649 0.09539012 -0.019592606 0.005998526 -0.07740058 -0.034505118 0.04278789 -0.029655613 -0.06839057 -0.07553257 -0.053459145 0.008271569 0.076541275 0.22146748 -0.02435176
봄 0.05188479 -0.022655787 0.07970313 0.071307145 0.0549183 -0.05892008 -0.018083273 0.09104662 0.027769055 0.028438736 0.015314874 -0.040064443 -0.05505784 -0.020175098 0.15304296 0.0061869808
욕 -0.13723226 -0.07758931 0.040415928 0.079678826 0.105838664 0.05823434 0.05875994 -0.02810631 -0.12198483 0.06690379 0.06296917 0.06379645 -0.054133095 -0.09507741 0.038767587 0.1423122
훌륭 0.14720885 0.07200252 -0.19735844 -0.16417356 -0.1147086 -0.12699585 -0.08618128 -0.0029995674 0.19086562 -0.07971667 -0.120460466 -0.09751136 0.09363578 0.08239929 -0.20164688 -0.11717375
너무나 0.006747387 0.012265214 -0.07691086 0.010111857 -0.01185308 0.029085737 -0.044255827 -0.01893528 -0.015418844 0.08942625 0.023784589 0.020870442 0.046085104 0.05909965 -0.021228325 -0.07429388
강추 0.06915019 -0.04827668 -0.08739282 -0.12043544 -0.083077855 -0.17812204 -0.14984004 0.07882031 0.13503964 -0.09815054 -0.13362531 -0.1591201 0.08810872 0.11080651 -0.116911106 -0.18341257
감 -0.022218158 0.011623251 0.04950867 0.008271359 0.000810512 0.015435001 0.05246482 0.020384533 0.02167242 0.0747848 0.009343394 -0.02572136 -0.017675256 -0.03806939 -0.038193148 -0.016568797
됨 0.060959052 0.09473083 0.09605197 -0.03138309 -0.012661108 -0.006540479 0.060610004 0.057778478 -0.03399725 0.07691665 0.0007207974 -0.018925743 -0.060522765 0.047721855 0.049239635 0.0032375152
ㅡ 0.0074650995 -0.04988083 0.076752484 0.056716055 0.059247274 0.05159458 0.014500067 0.06456511 -0.0146377515 -0.0090709785 -0.00255048 0.00017911455 -0.019432446 -0.017805345 0.053967927 0.04975853
따뜻 0.13650268 0.10887768 -0.057743188 -0.06169332 -0.10355505 -0.09694084 -0.098190755 0.08364829 0.13704394 -0.10191574 -0.12830108 -0.0791389 0.09526493 0.11027336 -0.095362015 -0.08014472
빼 0.0021717423 0.019193593 -0.098455444 -0.051317304 -0.010927696 0.064490795 0.13830595 -0.12219467 -0.02454755 0.09468338 0.12565702 0.05597652 -0.015064683 -0.053423997 -0.16916722 0.056703348
느끼 0.060114462 0.043789867 -0.050477162 -0.06276862 -0.12830588 -0.03182399 -0.040431555 0.021976274 0.03465821 -0.05904219 -0.009595789 -0.02222644 0.06010481 -0.003033893 -0.14159591 -0.08788541
해야 -0.008244887 0.025738066 0.016915219 -0.085034095 -0.0038570778 0.03116625 0.0062925178 -0.0091477875 0.0024932264 -0.044223323 -0.046018872 -0.0050911275 -0.0036461412 -0.014822751 -0.06305766 -0.03686837
드 -0.012779144 -0.037769172 0.08930604 0.020087468 0.040430035 -0.010092976 -0.07731341 0.014744518 -0.015847905 -0.00510223 0.0028329352 -0.032806803 0.027586691 -0.0010305799 0.27624786 -0.033154424
도대체 -0.08596237 -0.04133936 0.033817545 0.10411995 0.103246704 0.121908404 0.12367406 -0.13581827 -0.08575379 0.09114342 0.14008273 0.084606566 -0.07727512 -0.09057965 0.026996396 0.060014334
어야 -0.09414483 0.022223346 -0.022483224 0.0653557 0.091346115 0.00037998683 0.007336038 -0.069057345 -0.011557735 0.00021765803 0.025704501 0.05827879 -0.068877734 -0.06705473 0.030247679 0.045389943
답답 -0.122190535 -0.08886589 0.07563463 0.0875132 0.08878292 0.13658404 0.067903794 -0.093572825 -0.07777358 0.07790888 0.12963235 0.12477995 -0.070816286 -0.13380632 0.10275526 0.14861304
마다 -0.01701073 0.0027616774 -0.015751086 -0.030760856 -0.012066978 -0.0219537 0.03941808 0.01150281 -0.0065449523 0.012159122 0.0020060076 0.037568223 -0.044138167 0.04314419 0.025164515 -0.015602505
준다 0.011524333 -0.025084227 0.13959433 0.1118129 0.07799761 -0.029839227 0.047179595 0.012429694 -0.057365112 0.010894018 -0.022161506 0.051978704 -0.11116036 -0.0028686654 0.23268664 -0.015860979
글 -0.025228227 -0.029202232 0.0031007782 0.066777505 -0.023877243 -0.009918366 0.03120174 0.011177525 -0.0292353 0.10059133 0.0022537427 0.075848654 -0.04954271 -0.0804405 -0.028152324 0.04847623
전쟁 0.06866895 0.03287385 -0.03469271 -0.04727525 -0.040867142 -0.042042684 -0.03436569 -0.029514601 0.021127284 -0.00864523 -0.02688627 0.021692852 -0.012127022 0.022848284 -0.06979066 0.038778394
놈 -0.0062737283 0.10059012 -0.14441255 -0.02276542 -0.011048243 -0.012093029 0.04054953 -0.056158405 0.06496951 -0.010665522 0.07343601 -0.022779165 0.015490871 -0.037296627 -0.180634 0.028720377
설정 -0.013738749 0.0050457884 0.06146475 0.0944833 0.022550298 0.033068255 0.052184723 -0.053058453 -0.06592286 0.050644726 0.1207805 0.082714505 -0.039148867 -0.11649105 0.081085764 0.092355
무엇 0.03243367 -0.023450525 0.008055269 -0.043696363 0.0045778626 -0.046796937 -0.006211499 0.049128264 -0.012704154 -0.036462344 -0.051413387 -0.0813727 0.039232794 -0.0028539775 0.15449546 -0.0018425416
수작 0.19952975 0.19164708 -0.21282238 -0.16386734 -0.17709053 -0.2506592 -0.24766915 0.14848039 0.26608318 -0.18688892 -0.26992646 -0.20836183 0.18295465 0.19741407 -0.141558 -0.22036724
만화 -0.0070525394 0.035523552 0.0028588853 0.024996886 0.03538442 0.014269987 0.04211517 -0.051986348 -0.054138985 -0.0626495 0.037294 -0.012606098 0.012065724 -0.05005692 0.007180568 0.067013435
흥미 0.03833532 0.06221018 -0.013531005 -0.0619447 0.02676015 -0.018290253 -0.0045212205 0.013160029 0.013916188 -0.011280644 -0.022148423 0.027581012 0.0015192806 -0.038357064 -0.10677233 0.050930887
그저 0.013427624 0.017067553 0.043845873 0.06544525 -0.003416383 0.012041228 0.045364767 -0.01887854 -0.054130595 0.108221546 0.08451694 0.08022912 -0.062289026 -0.0265318 0.06243071 0.04846757
감정 0.09125519 0.03484365 0.023510447 -0.0057299137 -0.05291149 -0.07144877 -0.07830172 0.074272215 0.043141183 -0.00061704597 -0.07832464 -0.02428833 -0.008728474 0.05205948 0.18068543 -0.015245397
미국 0.04414571 -0.016369566 -0.03700237 -0.06951607 -0.0033380648 0.021552205 -0.05581799 -0.038038816 0.01941691 0.0037037048 0.0062886127 0.027791815 -0.0056606075 0.06007927 -0.13863146 0.0002475034
신선 0.065043844 0.087443255 -0.087390125 -0.066937394 -0.03947288 -0.09636764 -0.099829905 0.01823103 0.065655686 -0.09565397 -0.09041039 -0.058305405 0.04227971 0.03680671 -0.09255623 -0.12189136
행복 0.118375696 0.0067134444 -0.059482135 -0.0665918 -0.10995394 -0.09644751 -0.10753446 0.10939129 0.04743961 -0.13200544 -0.15858841 -0.12300486 0.09315487 0.06248641 0.00064531586 -0.06532458
뻔 -0.011126274 -0.008233973 0.07478283 0.063861944 0.06553555 0.077617645 0.064166516 -0.034865953 -0.074256875 0.05359315 0.008904865 0.02257144 0.005383284 -0.07793823 0.031637248 0.06163535
형 -0.0023387142 0.08194457 -0.074843004 -0.06992182 0.006183386 -0.023823833 0.03787863 0.019949239 0.010052223 0.006963956 0.032691903 -0.026415458 0.04055016 -0.013331771 -0.04912214 -0.035855442
앞 0.045819394 -0.012133881 -0.059976723 0.034141682 0.014956657 -0.035703033 -0.0338242 0.021940254 -0.025463156 0.009616551 -0.05046043 -0.015195235 -0.03940094 0.0077176597 0.02042799 -0.030946381
허접 -0.20588195 -0.17922185 0.1585767 0.1715026 0.19361511 0.16976726 0.1548758 -0.21447682 -0.13144577 0.1597875 0.18658355 0.122997105 -0.15887026 -0.1572162 0.123542026 0.18890707
어도 -0.053087328 0.021617116 0.026081324 -0.02647358 0.026358293 -0.035538737 0.0025422876 0.03954478 -0.007324873 -0.015529412 0.02815805 0.03648322 0.021902755 0.038856167 0.038682096 0.009787032
군 -0.02932031 0.006132895 -0.09134727 -0.0069386405 -0.010482591 0.055108804 0.028513148 0.0025064745 -0.049297895 0.07745512 -0.016293786 0.0653538 0.017809987 -0.05444069 -0.060823794 0.05188243
시절 0.028826978 -0.030721555 0.00016954227 0.023623962 -0.0056058117 -0.060750723 0.008301194 -0.0032886583 0.026119316 0.036774326 -0.0019690413 -0.038536478 0.01779444 0.05798411 0.09533793 -0.060189873
관객 -0.109194845 -0.045778897 0.042845417 0.05482294 0.07331873 0.07735349 0.04778547 -0.061781254 -0.0592955 0.070139505 0.047842443 0.07865086 -0.025344133 -0.10828541 0.010755555 0.10275322
배경 -0.041180357 0.008666466 -0.0076983194 0.023814907 0.014648343 -0.038714346 0.004057191 0.023837883 -0.062240753 0.004336387 0.008028687 -0.013215568 -0.047044538 0.018606741 0.050734308 0.0052800765
6 0.06498394 0.040684953 0.0018375514 -0.059835315 -0.081749186 -0.046212006 0.0011308953 0.030514535 0.043757834 -0.09234193 0.022035927 0.038930144 0.08228354 -0.026323827 -0.14193958 0.021293445
초반 -0.040583845 -0.094495244 0.033322852 0.028661933 0.03242458 -0.033786003 0.06907501 -0.04538546 0.036244184 -0.076452166 0.04766917 0.016736938 -0.042054154 -0.049361147 -0.046285834 0.06732899
사실 0.0020732668 0.014475181 -0.12518981 -0.12787536 -0.065594904 -0.06332016 -0.020326793 0.035554454 0.095059894 -0.08612559 -0.07979375 -0.042937595 0.04191481 0.057577934 -0.17761062 -0.036573593
웃음 -0.0073091635 0.10616391 -0.028815582 -0.008452323 0.01805454 0.0435698 -0.031910066 0.012788958 0.0068837903 0.024850214 0.0037739605 -0.041862562 -0.009396692 -0.025974093 -0.050466828 -0.027279923
답 0.013647152 -0.03368137 0.031204963 -0.03712911 0.029921854 0.0056384215 0.012897008 0.028988725 -0.029835323 -0.011616658 0.018927213 0.006738461 0.01093772 0.013323258 -0.00083727 0.049398076
엄청 0.000546579 0.025946615 -0.0030841078 0.016336394 -0.048083887 -0.025680728 0.009531194 0.0068324087 -0.033055935 0.037302885 -0.037803814 -0.05670982 -0.030475061 -0.007777076 0.08093101 -0.05148552
더라 0.06581076 0.0010060532 0.00733728 0.07864139 0.0043921424 0.033976283 -0.02838724 -0.008019793 -0.05534258 0.011267379 0.05241629 -0.024721175 0.019018311 -0.0084352745 0.025299648 0.015333857
라니 -0.012248755 -0.015183885 -0.06507529 -0.03699137 -0.011913552 0.040011838 -0.018652828 0.013065209 0.015268699 0.05173549 -0.006770586 -0.029500406 -0.03570067 0.0045612324 -0.09632479 -0.021573178
질 -0.08646825 -0.031825796 0.033522002 0.057049375 0.06260683 0.066746496 0.09003325 -0.044349946 -0.08256229 0.045577906 0.032250524 0.04713095 -0.08629044 -0.061472192 0.057111695 0.025159257
자신 0.0022574998 -0.03268745 0.01715666 0.047003996 -0.013309941 -0.028707415 -0.0074785054 0.047668036 0.04570575 -0.016235918 -0.04857798 0.02783114 -0.020824889 0.032051962 0.05973983 -0.03922081
추억 0.09072429 0.068499885 0.0374365 -0.025245639 -0.06440425 -0.06519835 -0.069406405 0.02387057 -0.018349994 -0.0054810066 0.00012488442 -0.04785047 0.008112736 0.017379448 -0.0047706505 -0.056713253
캐스팅 -0.047526494 0.06399732 -0.026342437 0.051702775 0.05953683 0.08116097 0.077490956 -0.058713432 -0.052608255 0.00583254 0.06400736 0.054321643 -0.024807492 -0.03824415 -0.068553485 0.06390563
첨 0.00043065447 -0.052079055 0.022077546 0.0358042 0.0800221 0.013607008 0.051236354 0.017494129 -0.020317625 0.023850366 0.0030620175 0.057349168 0.005521752 -0.019959262 0.05444756 0.037545126
멋있 0.06872705 0.10463259 -0.09036452 -0.151799 -0.072549574 -0.110009 -0.10320712 0.12114844 0.08395505 -0.11596154 -0.14827777 -0.07588294 0.122381374 0.083557926 -0.060090624 -0.10738348
류 -0.009877814 -0.059757147 0.10724411 0.028020967 0.035106555 0.09610977 0.013676201 -0.012782068 -0.10565211 0.014804495 0.031655513 0.0623445 -0.10396045 -0.092394 0.12409853 0.023365673
어색 -0.15090935 -0.08053581 0.09772658 0.1534198 0.1214662 0.15043184 0.12399833 -0.09185517 -0.14394762 0.10780499 0.09786325 0.13272028 -0.09228992 -0.08311583 0.103960045 0.11040684
시나리오 -0.04428683 -0.0071594203 0.079955555 0.03624029 0.046999846 0.022151917 0.025540732 -0.007906167 -0.08712109 0.09391602 0.08221644 0.065912165 -0.022144271 -0.082263835 0.06653946 0.09755076
머 -0.013623257 -0.08178179 0.059686948 0.045242056 0.06701664 0.06300735 0.050007388 -0.020621348 -0.01785326 -0.02794118 0.07461177 0.07810453 -0.025663028 -0.052939355 0.002246166 0.05587823
밖에 0.006423767 0.050618406 -0.03660587 -0.01972142 -0.06438177 -0.04956691 -0.047073778 0.06232383 0.052213833 -0.06900649 0.036660228 -0.04758867 0.0059252707 0.015685238 -0.04931237 0.017032549
OOO -0.11188022 -0.026407877 0.089297295 0.08098808 0.080615774 0.1112113 0.08526421 -0.11282364 -0.07726887 0.09558863 0.030510502 0.027463874 -0.0856846 -0.105439745 0.07646521 0.105439596
슬프 0.09317055 0.049976416 -0.1853051 -0.0711957 -0.14273636 -0.10914075 -0.0647733 0.008957029 0.08357293 -0.02947983 -0.13830785 -0.059906922 0.086426415 0.10575859 -0.14492999 -0.07098733
정신 -0.099118695 -0.05840792 0.018270152 0.045631588 -0.0003635499 0.064279355 0.019271946 -0.06546358 -0.06904428 0.059098534 0.070524804 0.049203925 -0.021436695 -0.04463777 -0.028739907 0.05599044
분위기 0.0073525487 0.067926586 0.01662832 -0.01697439 -0.034618285 0.011004394 -0.023835795 0.04669774 0.071849115 -0.013422436 0.018168563 -0.04080542 0.059066925 0.017050479 0.02817177 -0.05860505
소름 0.104564056 0.04612004 -0.12668714 -0.04069973 -0.122956276 -0.03604424 -0.094366886 -0.0061594555 0.08101546 -0.09328025 -0.07218477 -0.10603217 0.07446264 0.11662149 -0.14003928 -0.11720118
멋진 0.05809901 0.11405865 -0.025975505 -0.14528571 -0.05415675 -0.093695454 -0.09731056 0.08626728 0.07476213 -0.046043854 -0.110101864 -0.07082104 0.10482418 0.070548035 -0.039310727 -0.10731207
힘들 0.0049178004 -0.02664464 0.043782867 0.0721352 0.080316946 0.058673784 0.005951311 -0.009948133 -0.031551287 0.055467766 0.053219795 0.07069201 -0.04393114 -0.08551477 0.09358627 0.083810024
오늘 -0.02434838 0.03207412 0.017920945 -0.013385746 0.015369613 -0.0050262306 -0.058570396 0.06848982 0.0025094617 0.012283659 0.004814648 -0.06599359 0.045505054 0.0485304 -0.050575364 -0.03377991
어이없 -0.13459152 -0.093361914 0.17346881 0.16590238 0.16994298 0.17733018 0.13359134 -0.08536302 -0.16106926 0.17257525 0.19106358 0.13587263 -0.16511796 -0.20870599 0.118475646 0.12917678
봐서 0.012642662 0.05082556 -0.036890395 -0.054424442 -0.06563747 0.03216313 0.04751921 0.054232486 0.014473277 0.015714625 -0.0055837817 -0.017025948 0.052415438 0.009811002 -0.117878385 0.010269045
잡 -0.024884693 -0.015870016 -0.021505242 0.034378268 0.009685522 -0.033432085 -0.052109554 0.009548017 -0.03428511 0.070427775 -0.012498834 0.045717444 -0.043034505 0.004642794 0.060487185 -0.021870885
구성 -0.013583712 0.054622777 -0.05036768 -0.060478985 -0.00040150635 -0.030692074 0.012451318 0.026383799 0.036897015 -0.004827223 0.03144576 -0.022214122 0.008459345 0.034105998 -0.021451987 0.014430304
엄마 -0.005431064 -0.007425315 -0.036140155 0.016570495 0.023841163 -0.034541786 -0.058070052 0.06119243 0.064988516 -0.009170598 -0.060025703 -0.005037953 0.07681679 0.07141523 -0.00799385 -0.04923697
함께 0.05723714 0.008941425 -0.007050545 -0.07578128 -0.039897017 -0.048253674 -0.015471074 0.0653285 0.00032157102 0.029940581 -0.020103524 -0.052445155 0.06750777 0.043121368 0.042083696 -0.08144105
문제 -0.09263536 -0.02776214 -0.03711635 -0.008063725 0.05682965 0.08013681 -0.0051082913 -0.090515316 -0.015219495 0.014012022 0.045139913 0.0054237326 -0.052178573 -0.02756889 -0.065005034 0.048592534
위해 -0.0455049 0.0421538 0.020039486 -0.037676677 0.042372268 0.07934107 -0.0030383987 -0.028503783 -0.035574086 0.026316404 0.03745504 -0.0042309505 0.046192978 0.020938504 -0.062457934 0.03170441
졸작 -0.1900286 -0.14037059 0.136076 0.23877178 0.18811205 0.18978004 0.24497423 -0.20829591 -0.22411148 0.15258366 0.20452721 0.22379182 -0.19831501 -0.23486105 0.09753781 0.23005125
잊 0.1252291 0.057875037 -0.015659705 -0.10111134 -0.04615789 -0.06845564 -0.14403866 0.12689273 0.07112088 -0.08622406 -0.058695275 -0.06506581 0.033462863 0.13130897 0.063023664 -0.078755766
이딴 -0.19484185 -0.17445834 0.15030648 0.1477795 0.19392888 0.14147563 0.1841786 -0.17789121 -0.1995162 0.10389154 0.18874037 0.11351374 -0.113495715 -0.20401666 0.18578835 0.14856353
등 -0.005158997 -0.0012009694 -0.086127125 -0.036020476 -0.044115223 0.009057598 -0.03713904 0.04151022 0.058733538 0.010866379 -0.062162135 -0.0043128086 0.005849487 0.009000364 -0.018052034 -0.0010520059
집 -0.022365639 -0.02723832 0.008453088 0.03146367 0.059465412 0.007211285 -0.0037474935 0.004615864 -0.057825055 0.035263665 -0.029273536 -0.039360292 -0.034286045 0.041023977 0.05885492 0.019605462
유쾌 0.12412861 0.16837159 -0.20738547 -0.2308338 -0.21870503 -0.071076326 -0.077504285 0.103567295 0.21492675 -0.12553509 -0.14155926 -0.105469055 0.13854672 0.15404743 -0.22525834 -0.14086297
뻔한 -0.04238514 -0.075293764 0.024869164 0.100667484 0.09419911 0.03670555 0.09787303 -0.014416076 -0.1112652 0.16676 0.035979446 0.10785823 -0.113883555 -0.09612922 0.10407128 0.0611701
킬링 0.040936366 0.0198161 -0.0010318378 0.030383453 -0.038470007 -0.05168567 -0.027634975 0.045177717 0.005467805 0.0108868545 0.043495372 0.013304559 0.0142061915 -0.016206808 0.018220937 0.055682074
스러운 0.012715007 0.046640154 0.064898275 0.006897885 -0.04899339 -0.0636593 -0.051495682 0.0046806238 0.046770252 -0.06616681 -0.021959439 -0.02607145 -0.029445427 0.038224738 0.10507002 -0.02149451
결국 -0.04205596 0.049851548 0.05809796 -0.0021894064 0.040592868 0.042576514 -0.025853679 0.04004218 -0.05666614 -0.012509488 0.00516541 0.042001694 -0.041476697 -0.06281654 0.037730217 0.041920707
낫 -0.020902464 0.03412431 -0.12316215 -0.06692511 -0.06496742 0.034922216 -0.026878893 -0.04679662 -0.0120804235 -0.0043178936 -0.018497478 0.04870532 0.048673455 -0.002663746 -0.14580546 -0.006014195
한데 -0.0288747 -0.041396026 -0.11982471 -0.041186616 0.0074921143 -0.022330508 0.05529104 -0.044723738 0.055747505 -0.018786648 0.048304074 -0.02277839 -0.022057187 -0.08259299 -0.117962725 -0.042827792
